%YAML:1.0
---
opencv_ml_svm:
   format: 3
   svmType: C_SVC
   kernel:
      type: RBF
      gamma: 5.0624999999999998e-01
   C: 1.2500000000000000e+01
   term_criteria: { epsilon:1.1920928955078125e-07, iterations:1000 }
   var_count: 144
   class_count: 2
   class_labels: !!opencv-matrix
      rows: 2
      cols: 1
      dt: i
      data: [ 0, 1 ]
   sv_total: 1572
   support_vectors:
      - [ 6.02536082e-01, 1.81990668e-01, 4.24391516e-02, 0., 0., 0.,
          2.67343540e-02, 4.81921017e-01, 6.02536082e-01, 4.79069144e-01,
          4.79069144e-01, 4.79069144e-01, 4.79069144e-01, 0., 0., 0.,
          2.83013601e-02, 2.76378691e-01, 4.36187565e-01, 4.36187565e-01,
          4.36187565e-01, 4.36187565e-01, 1.37828020e-02, 4.28004026e-01,
          2.17419401e-01, 2.67619453e-02, 5.69190755e-02, 1.34734496e-01,
          2.75281146e-02, 3.47254932e-01, 4.11410570e-01, 3.46335471e-01,
          4.11410570e-01, 3.30993921e-01, 3.94715399e-01, 3.64101678e-01,
          1.66614637e-01, 2.10943937e-01, 2.82854792e-02, 0.,
          3.80683281e-02, 1.14470325e-01, 3.09881240e-01, 6.36399746e-01,
          6.36399746e-01, 4.77176577e-01, 4.77176577e-01, 4.77176577e-01,
          4.77176577e-01, 8.69671702e-02, 1.73122868e-01, 1.06475592e-01,
          1.06630921e-01, 1.55569389e-01, 3.22694838e-01, 4.00603443e-01,
          4.00603443e-01, 4.00603443e-01, 2.12237403e-01, 4.00603443e-01,
          1.39232025e-01, 1.70947254e-01, 3.95323306e-01, 2.17745796e-01,
          5.25540672e-02, 1.92906499e-01, 4.55675572e-01, 4.55675572e-01,
          4.55675572e-01, 3.23301017e-01, 1.43497974e-01, 4.00030464e-01,
          3.00534874e-01, 4.45516020e-01, 2.63615608e-01, 1.06591666e-02,
          4.09059674e-02, 4.45516020e-01, 4.45516020e-01, 4.45516020e-01,
          2.00025871e-01, 5.48269987e-01, 5.48269987e-01, 2.32210487e-01,
          1.14121154e-01, 3.40532064e-01, 3.51283073e-01, 2.10300788e-01,
          1.08221032e-01, 1.76293850e-01, 4.49634850e-01, 4.49634850e-01,
          2.21695185e-01, 7.19047934e-02, 2.61331141e-01, 3.00838023e-01,
          1.29953116e-01, 3.98735523e-01, 4.49634850e-01, 4.81659472e-01,
          3.54808122e-02, 3.93800810e-03, 1.65882856e-02, 1.99174136e-01,
          1.61201164e-01, 4.81659472e-01, 4.81659472e-01, 4.81659472e-01,
          2.88541149e-02, 3.89180481e-01, 3.89180481e-01, 3.89180481e-01,
          7.82629997e-02, 3.89180481e-01, 3.89180481e-01, 3.89180481e-01,
          2.83523887e-01, 7.03857169e-02, 4.28079516e-01, 4.28079516e-01,
          4.28079516e-01, 4.28079516e-01, 4.28079516e-01, 2.65598863e-01,
          5.65864407e-02, 2.76486389e-02, 1.22982211e-01, 3.70514780e-01,
          4.22261268e-01, 5.29313326e-01, 5.29313326e-01, 3.13826293e-01,
          5.18964380e-02, 1.47919161e-02, 4.75311652e-02, 6.80390671e-02,
          3.02177481e-02, 8.08798000e-02, 4.85163748e-01, 4.85163748e-01,
          8.27011764e-02, 4.85163748e-01, 4.85163748e-01, 1.86267391e-01 ]
      - [ 3.38786989e-02, 6.82494929e-03, 2.58431379e-02, 5.34401119e-01,
          5.34401119e-01, 5.23098223e-02, 1.53640985e-01, 3.31217915e-01,
          5.34401119e-01, 5.08656260e-03, 3.91016621e-03, 1.33620510e-02,
          7.04360425e-01, 7.04360425e-01, 8.40734108e-04, 7.97469262e-03,
          7.43571436e-03, 1.95549186e-02, 1.36566097e-02, 4.58462955e-03,
          1.59955234e-03, 6.93287134e-01, 6.93287134e-01, 2.93177981e-02,
          4.59756404e-02, 1.36617333e-01, 9.96866524e-02, 2.62005270e-01,
          1.54164240e-01, 5.84535226e-02, 4.64928597e-01, 4.64928597e-01,
          2.23926485e-01, 3.38889927e-01, 2.93361068e-01, 4.64928597e-01,
          4.28328365e-02, 2.74266745e-03, 2.71897740e-03, 2.18139049e-02,
          2.57922485e-02, 5.63367561e-04, 8.00574757e-03, 7.03534663e-01,
          7.03534663e-01, 5.72845228e-02, 1.26826493e-02, 1.02423681e-02,
          5.44922054e-01, 3.15330803e-01, 5.83204348e-03, 2.68913712e-02,
          5.44922054e-01, 5.44922054e-01, 1.92990750e-02, 1.57083776e-02,
          5.94654446e-03, 6.82193220e-01, 6.82193220e-01, 1.08659975e-02,
          1.51563045e-02, 7.15872124e-02, 2.37249389e-01, 2.97467597e-03,
          1.07590687e-02, 1.27996532e-02, 7.04181969e-01, 7.04181969e-01,
          1.51345888e-02, 2.45446879e-02, 1.00917425e-02, 2.10743002e-03,
          3.21560241e-02, 3.13352346e-02, 1.69084705e-02, 5.78491855e-03,
          5.28712869e-01, 5.28712869e-01, 4.09734733e-02, 3.89992326e-01,
          5.28712869e-01, 3.88726667e-02, 5.76788152e-04, 0.,
          1.85900120e-04, 4.98049974e-01, 4.98049974e-01, 3.60414460e-02,
          4.98049974e-01, 4.98049974e-01, 5.89140281e-02, 6.23409171e-03,
          1.02300197e-03, 1.48445666e-01, 4.40466404e-01, 4.40466404e-01,
          4.40466404e-01, 4.40466404e-01, 4.40466404e-01, 9.44344103e-02,
          4.75305654e-02, 5.69332279e-02, 6.78919792e-01, 6.78919792e-01,
          1.51484311e-01, 1.27685174e-01, 8.37588534e-02, 1.03310920e-01,
          1.27141789e-01, 2.70913225e-02, 7.78218508e-02, 0.,
          6.81806087e-01, 6.81806087e-01, 9.65958536e-02, 1.43397441e-02,
          1.76019520e-01, 5.08695006e-01, 4.50657718e-02, 1.05948940e-01,
          0., 5.08695006e-01, 5.08695006e-01, 1.98396835e-02,
          4.15111445e-02, 4.50815797e-01, 5.98117828e-01, 2.67331935e-02,
          2.10846309e-02, 0., 4.01846677e-01, 2.94316024e-01,
          1.45632386e-01, 8.98179337e-02, 5.98117828e-01, 7.04130888e-01,
          2.48424732e-03, 2.85658846e-03, 0., 2.82796957e-02,
          1.72918979e-02, 1.53541984e-02, 4.66387067e-03, 7.04130888e-01 ]
      - [ 5.92387654e-02, 3.43049824e-01, 4.39987153e-01, 4.39987153e-01,
          4.39987153e-01, 3.34464788e-01, 9.09473822e-02, 3.82818282e-01,
          1.64190531e-01, 1.21314207e-03, 5.07341921e-02, 4.63072360e-01,
          4.63072360e-01, 2.12714463e-01, 2.99669266e-01, 4.63072360e-01,
          4.63072360e-01, 2.44303537e-03, 1.59531072e-01, 5.22115469e-01,
          3.75107735e-01, 2.37973444e-02, 3.83135639e-02, 7.39796832e-02,
          5.22115469e-01, 5.22115469e-01, 5.75220995e-02, 5.18263519e-01,
          5.18263519e-01, 2.35190943e-01, 4.93286923e-03, 9.49106924e-03,
          9.30379145e-03, 2.26234004e-01, 2.86941469e-01, 5.18263519e-01,
          4.69837897e-02, 5.65716773e-02, 3.35857093e-01, 4.42681611e-01,
          4.42681611e-01, 4.35101539e-01, 4.42681611e-01, 2.95534045e-01,
          1.13205746e-01, 3.75659689e-02, 3.10474783e-02, 5.07263541e-01,
          5.07263541e-01, 5.07263541e-01, 1.78598940e-01, 4.16544497e-01,
          1.20706409e-01, 2.51566581e-02, 1.11463085e-01, 4.25209761e-01,
          4.25209761e-01, 3.38706136e-01, 3.58788669e-01, 1.29088968e-01,
          4.25209761e-01, 4.25209761e-01, 0., 4.30600375e-01,
          5.84829271e-01, 5.84829271e-01, 2.66676515e-01, 1.98215261e-01,
          6.27924651e-02, 3.34793366e-02, 4.66529019e-02, 8.39478821e-02,
          4.89842892e-01, 3.00300890e-04, 3.33993025e-02, 4.75874126e-01,
          2.17247918e-01, 1.33833840e-01, 4.10180598e-01, 2.32996404e-01,
          4.89842892e-01, 4.97874349e-01, 7.05605024e-04, 3.48283127e-02,
          4.97874349e-01, 4.97874349e-01, 3.67508717e-02, 1.73354931e-02,
          2.54431181e-02, 4.97874349e-01, 3.52567673e-01, 1.23626262e-01,
          4.45851058e-01, 4.45851058e-01, 4.45851058e-01, 1.16336100e-01,
          4.30981107e-02, 2.13154510e-01, 4.45851058e-01, 6.53897524e-02,
          1.21586636e-01, 5.58571279e-01, 5.58571279e-01, 5.58571279e-01,
          2.91628689e-02, 1.88832693e-02, 1.28527284e-01, 1.47074923e-01,
          4.20236021e-01, 3.59276503e-01, 3.85144740e-01, 4.20236021e-01,
          4.20236021e-01, 1.57907829e-02, 5.38384691e-02, 9.40465331e-02,
          4.20236021e-01, 6.34848177e-01, 1.56545639e-02, 1.70477033e-02,
          0., 0., 0., 1.94329210e-02, 4.32069361e-01, 6.34848177e-01,
          2.52376854e-01, 7.69821927e-04, 4.02277755e-03, 5.87442927e-02,
          2.06438228e-02, 0., 5.06973788e-02, 6.79359913e-01,
          6.79359913e-01, 4.21415061e-01, 4.21415061e-01, 4.21415061e-01,
          4.21415061e-01, 7.48846903e-02, 0., 3.37250531e-02,
          3.17949772e-01, 4.21415061e-01 ]
      - [ 6.15506805e-02, 4.25529987e-01, 4.96244103e-01, 4.96244103e-01,
          4.96244103e-01, 2.56178617e-01, 1.90130901e-02, 0.,
          7.35931471e-02, 2.65115090e-02, 3.25237438e-02, 4.80215847e-01,
          5.78346431e-01, 5.78346431e-01, 3.01536471e-01, 2.87290402e-02,
          2.37156544e-02, 2.39939708e-02, 4.00411695e-01, 1.65020749e-01,
          4.00411695e-01, 4.00411695e-01, 1.80666462e-01, 4.00411695e-01,
          2.50472665e-01, 2.67849624e-01, 4.00411695e-01, 6.04964793e-01,
          6.04964793e-01, 1.48339242e-01, 8.00598115e-02, 1.36375129e-01,
          3.54417041e-02, 2.85987686e-02, 2.29697060e-02, 4.60848033e-01,
          5.11470199e-01, 2.77188331e-01, 1.91821635e-01, 3.40919614e-01,
          5.11470199e-01, 3.74813825e-01, 3.65883447e-02, 0.,
          3.16242009e-01, 4.57604885e-01, 4.32438016e-01, 4.57604885e-01,
          4.57604885e-01, 3.54937226e-01, 1.48707321e-02, 0., 0.,
          2.32418329e-01, 4.80134159e-01, 2.17021540e-01, 5.61493218e-01,
          5.74242175e-01, 2.54606545e-01, 0., 0., 0., 8.23738426e-02,
          4.91957188e-01, 3.69862318e-01, 3.49181861e-01, 4.91957188e-01,
          4.91957188e-01, 0., 0., 1.60733238e-02, 1.00181885e-01,
          5.25612772e-01, 5.25612772e-01, 1.26487702e-01, 1.35800526e-01,
          3.50522012e-01, 1.38784453e-01, 3.96221783e-03, 6.32579327e-02,
          5.11496127e-01, 4.51967865e-01, 3.09229016e-01, 1.49646252e-01,
          2.68881440e-01, 4.51967865e-01, 4.51967865e-01, 2.77816172e-04,
          1.94369797e-02, 4.38142687e-01, 4.69906807e-01, 4.69906807e-01,
          4.69906807e-01, 4.69906807e-01, 3.28261584e-01, 4.86277267e-02,
          0., 0., 4.40077744e-02, 4.65998501e-01, 4.65998501e-01,
          4.65998501e-01, 4.65998501e-01, 1.08304642e-01, 0.,
          1.81928389e-02, 2.22743899e-01, 2.55051494e-01, 5.07137358e-01,
          9.65725258e-02, 9.00216699e-02, 1.15301594e-01, 5.07137358e-01,
          3.29835474e-01, 4.19445671e-02, 2.86521822e-01, 5.07137358e-01,
          8.36369246e-02, 2.12232634e-01, 3.60105425e-01, 2.88638622e-01,
          3.84706348e-01, 3.84706348e-01, 3.73007864e-01, 3.84706348e-01,
          3.84706348e-01, 1.10735096e-01, 4.95335072e-01, 4.95335072e-01,
          4.95335072e-01, 4.95335072e-01, 2.39400882e-02, 2.55566444e-02,
          7.04052905e-03, 9.35423747e-03, 4.91291136e-01, 4.91291136e-01,
          4.91291136e-01, 4.81922597e-01, 8.11652616e-02, 0.,
          6.94174170e-02, 1.38960764e-01, 8.95881802e-02 ]
      - [ 4.06264476e-02, 4.52977745e-03, 3.82023817e-03, 8.64237268e-03,
          7.03940630e-01, 7.03940630e-01, 0., 0., 1.21566951e-02,
          1.05846658e-01, 1.42745404e-02, 2.94734468e-03, 8.61428492e-03,
          7.00454712e-01, 7.00454712e-01, 0., 0., 1.56193553e-02,
          5.72709143e-01, 9.80212316e-02, 5.88238006e-03, 1.05870580e-02,
          5.72709143e-01, 5.72709143e-01, 9.34582297e-03, 3.11527448e-03,
          2.10234299e-02, 4.84001249e-01, 4.84001249e-01, 1.58115506e-01,
          1.57470718e-01, 4.84001249e-01, 4.68815774e-01, 2.48016752e-02,
          9.88950208e-03, 1.48645818e-01, 2.65751332e-01, 3.83859247e-01,
          2.78946370e-01, 7.36383945e-02, 5.88583887e-01, 5.88583887e-01,
          3.39417090e-03, 0., 6.63066376e-03, 5.67833841e-01,
          5.67833841e-01, 2.67454147e-01, 1.14103168e-01, 3.83315355e-01,
          3.35034251e-01, 1.60871394e-04, 0., 7.56927431e-02,
          8.72171819e-01, 4.40395296e-01, 6.66226633e-03, 3.96818444e-02,
          1.40270174e-01, 3.17565240e-02, 0., 1.23267295e-03,
          1.19837001e-01, 7.50424922e-01, 2.10367948e-01, 3.88244889e-03,
          3.55808600e-03, 1.39366165e-02, 8.02258682e-03, 2.13875268e-02,
          1.44984692e-01, 6.02787971e-01, 3.42579722e-01, 2.08226308e-01,
          5.65343797e-01, 4.37883735e-01, 4.03355286e-02, 7.19125243e-03,
          2.77514890e-04, 3.14252451e-02, 5.65343797e-01, 3.52978319e-01,
          3.97607177e-01, 4.57221717e-01, 4.57221717e-01, 4.57221717e-01,
          1.07176816e-02, 1.19909482e-05, 7.86208175e-03, 2.92260200e-01,
          3.22819561e-01, 6.22230172e-02, 1.45594534e-02, 6.64868414e-01,
          6.64868414e-01, 3.92808812e-03, 0., 1.41362660e-03,
          3.08025423e-02, 7.17061087e-02, 2.25203997e-03, 4.73558065e-03,
          6.99597776e-01, 6.99597776e-01, 7.25419372e-02, 2.06193477e-02,
          4.59924415e-02, 3.42054516e-02, 3.42279196e-01, 2.64392560e-03,
          1.27354432e-02, 2.11807787e-02, 4.80462005e-03, 0.,
          2.35018219e-04, 9.58212689e-02, 9.29381549e-01, 2.27829412e-01,
          2.58532120e-03, 1.22949788e-02, 1.37095332e-01, 3.24136585e-01,
          1.42479194e-02, 7.51406001e-03, 1.31326884e-01, 8.93117428e-01,
          2.88106680e-01, 2.01583579e-02, 8.41917191e-03, 5.20119071e-01,
          5.63270509e-01, 2.29594600e-03, 2.59315148e-02, 7.17195719e-02,
          5.63270509e-01, 4.66369808e-01, 9.27332863e-02, 7.09186494e-02,
          5.02359450e-01, 5.02359450e-01, 2.73810443e-03, 7.26609156e-02,
          3.83532830e-02, 5.02359450e-01 ]
      - [ 4.12181050e-01, 4.14268188e-02, 7.65693560e-02, 5.12226999e-01,
          4.26443636e-01, 0., 1.32790552e-02, 3.32608879e-01,
          5.12226999e-01, 5.31349599e-01, 3.81511673e-02, 6.77987710e-02,
          5.49151480e-01, 5.49151480e-01, 7.94271231e-02, 6.22537024e-02,
          7.03752637e-02, 2.96411604e-01, 3.48968059e-01, 9.72448476e-03,
          1.51085248e-02, 1.58335447e-01, 5.70009649e-01, 5.70009649e-01,
          5.67469038e-02, 6.49503991e-02, 4.35747236e-01, 1.86522380e-01,
          2.78757457e-02, 9.02762730e-03, 0., 2.93013692e-01,
          6.96817577e-01, 6.04822099e-01, 5.31222485e-02, 1.31724641e-01,
          1.14736520e-02, 1.80045189e-03, 8.62006005e-03, 4.75692034e-01,
          2.83250839e-01, 4.27999675e-01, 2.29730412e-01, 4.75692034e-01,
          4.75692034e-01, 5.59077784e-02, 0., 2.95837026e-06,
          5.25453150e-01, 5.25453150e-01, 2.63946027e-01, 3.51687878e-01,
          4.68290448e-01, 1.63636580e-01, 1.41184002e-01, 1.26516744e-01,
          9.75378528e-02, 3.55692983e-01, 6.35809839e-01, 6.35809839e-01,
          2.31042784e-03, 2.03846791e-03, 1.14733100e-01, 5.24011314e-01,
          5.24011314e-01, 2.84421563e-01, 1.24380402e-01, 2.17675552e-01,
          5.24011314e-01, 2.98654791e-02, 1.23702008e-02, 1.61893547e-01,
          4.88172263e-01, 9.80756730e-02, 2.35143630e-03, 1.73192850e-04,
          4.88172263e-01, 4.88172263e-01, 4.23654616e-01, 2.69467592e-01,
          1.35894746e-01, 6.88442469e-01, 4.07627672e-01, 0.,
          3.42796035e-02, 1.55198887e-01, 2.81901687e-01, 3.23016912e-01,
          1.17389224e-01, 3.60781908e-01, 5.56572974e-01, 1.22323424e-01,
          1.83572441e-01, 4.09701951e-02, 1.14186272e-01, 4.15102541e-02,
          4.42677829e-03, 5.56572974e-01, 5.56572974e-01, 1.95351511e-01,
          4.21254456e-01, 4.21254456e-01, 4.21254456e-01, 3.18255961e-01,
          2.44176970e-03, 6.45641994e-05, 3.82773548e-01, 4.21254456e-01,
          5.96681893e-01, 2.53071219e-01, 0., 0., 3.84095423e-02,
          1.14002153e-01, 1.95420355e-01, 4.06543553e-01, 5.96681893e-01,
          7.98108220e-01, 3.72242093e-01, 0., 0., 2.39839420e-01,
          1.64787158e-01, 1.52772084e-01, 5.99826686e-02, 3.23850274e-01,
          3.94407660e-01, 3.57895829e-02, 5.49114123e-02, 3.63154039e-02,
          4.93260920e-01, 1.92482889e-01, 2.58712977e-01, 4.93260920e-01,
          4.93260920e-01, 7.63833448e-02, 1.68285891e-02, 5.72115779e-02,
          2.69323379e-01, 4.28231120e-01, 1.36019439e-02, 6.63177948e-03,
          6.03505313e-01, 6.03505313e-01 ]
      - [ 4.23439085e-01, 1.37540981e-01, 4.60935123e-02, 8.06576759e-03,
          2.79570609e-01, 4.23439085e-01, 4.23439085e-01, 4.23439085e-01,
          4.23439085e-01, 1.72519788e-01, 7.58425668e-02, 4.16152686e-01,
          4.16152686e-01, 4.16152686e-01, 1.37452632e-01, 2.74807423e-01,
          4.16152686e-01, 4.16152686e-01, 4.31894362e-01, 4.64979857e-01,
          1.90866143e-01, 3.49145502e-01, 4.64979857e-01, 4.64979857e-01,
          3.73767427e-04, 1.95380533e-03, 4.32162881e-02, 4.25597578e-01,
          2.00243369e-01, 5.00586294e-02, 5.06285429e-02, 4.25597578e-01,
          4.25597578e-01, 2.95323491e-01, 3.76194328e-01, 4.22426373e-01,
          5.83734095e-01, 1.50930464e-01, 0., 0., 3.14664245e-01,
          5.83734095e-01, 1.24522686e-01, 5.06131127e-02, 4.15715218e-01,
          5.74413478e-01, 3.41876149e-02, 3.06968507e-03, 2.01557367e-03,
          2.45272256e-02, 3.67581844e-02, 3.57325412e-02, 5.74413478e-01,
          5.74413478e-01, 3.57212901e-01, 4.16549057e-01, 4.16549057e-01,
          4.16549057e-01, 2.57943422e-02, 6.41071063e-04, 2.51943734e-03,
          4.16549057e-01, 4.16549057e-01, 4.19433326e-01, 2.93816090e-01,
          4.19433326e-01, 4.19433326e-01, 4.43428718e-02, 1.37911931e-01,
          4.19433326e-01, 3.89717579e-01, 1.81436419e-01, 5.23372352e-01,
          2.87083089e-01, 5.23372352e-01, 3.13860685e-01, 2.95055628e-01,
          1.93119526e-01, 1.11070514e-01, 5.30750379e-02, 3.55674118e-01,
          4.60291535e-01, 1.76613107e-02, 0., 3.13460112e-01,
          4.60291535e-01, 1.76371232e-01, 1.35103941e-01, 4.60291535e-01,
          4.60291535e-01, 3.62934056e-03, 8.82283878e-03, 3.99294198e-01,
          4.19181973e-01, 3.51752192e-02, 0., 1.64734107e-02,
          5.73378325e-01, 5.73378325e-01, 1.61271007e-03, 1.41743608e-02,
          4.52297062e-01, 4.52297062e-01, 1.74418479e-01, 4.52297062e-01,
          4.52297062e-01, 3.72879535e-01, 8.67599025e-02, 1.32019189e-03,
          7.04840049e-02, 4.72851098e-01, 4.72851098e-01, 3.07326376e-01,
          4.72851098e-01, 4.72851098e-01, 3.87699157e-02, 1.48470490e-03,
          1.12322996e-04, 2.95575854e-04, 8.86727474e-04, 5.51588237e-01,
          5.51588237e-01, 5.51588237e-01, 2.84937024e-01, 2.35062372e-02,
          6.09814015e-04, 5.44684008e-04, 1.79368407e-02, 5.23244329e-02,
          5.55166185e-01, 5.55166185e-01, 8.48396644e-02, 8.24395046e-02,
          5.55166185e-01, 2.29724735e-01, 2.17895536e-03, 2.52418071e-02,
          5.85808456e-02, 2.51244277e-01, 2.13529572e-01, 5.20031631e-01,
          5.20031631e-01, 5.20031631e-01, 2.65924186e-01 ]
      - [ 3.83343220e-01, 5.04159153e-01, 5.04159153e-01, 3.77631932e-01,
          1.42347023e-01, 1.44840509e-01, 1.03119828e-01, 2.64228731e-01,
          2.74521917e-01, 2.83450484e-01, 1.25568524e-01, 4.98666078e-01,
          2.17377901e-01, 5.27743220e-01, 5.27743220e-01, 4.20614704e-02,
          8.91366154e-02, 1.89622223e-01, 4.42973673e-01, 5.90312574e-03,
          2.74231508e-02, 4.46930937e-02, 5.93488038e-01, 5.93488038e-01,
          1.97551190e-03, 2.48593278e-04, 3.01005036e-01, 4.49932933e-01,
          1.37783636e-05, 1.12296839e-04, 1.14142466e-02, 5.51454484e-01,
          5.51454484e-01, 1.95153821e-02, 4.19722125e-02, 4.26118016e-01,
          3.89002651e-01, 3.89002651e-01, 2.72122324e-01, 3.89002651e-01,
          3.89002651e-01, 1.53097019e-01, 1.66887254e-01, 3.89002651e-01,
          3.37872446e-01, 4.60030138e-01, 4.31753471e-02, 1.95610207e-02,
          2.98221320e-01, 4.60030138e-01, 4.60030138e-01, 9.74835232e-02,
          2.19564199e-01, 4.60030138e-01, 5.18302321e-01, 8.56178347e-04,
          6.53576106e-03, 1.69473812e-02, 4.34245169e-01, 5.18302321e-01,
          0., 3.51923751e-03, 5.18302321e-01, 4.54205424e-01,
          4.30897027e-02, 5.66609786e-04, 2.51995604e-02, 2.81302363e-01,
          4.54205424e-01, 3.89265031e-01, 3.78688633e-01, 4.54205424e-01,
          2.68483460e-01, 3.18612069e-01, 7.70447329e-02, 4.25574690e-01,
          4.25574690e-01, 2.83527106e-01, 1.06644414e-01, 4.25574690e-01,
          4.25574690e-01, 2.68221974e-01, 5.90837153e-04, 0.,
          4.75487202e-01, 4.75487202e-01, 3.28043312e-01, 2.44233727e-01,
          2.78891832e-01, 4.75487202e-01, 4.37297702e-01, 3.67367089e-01,
          2.57107824e-01, 2.70185709e-01, 4.83791888e-01, 4.83791888e-01,
          6.98587566e-04, 1.12184801e-03, 2.48524487e-01, 3.92739594e-01,
          3.92739594e-01, 6.14005700e-02, 3.48966807e-01, 2.88851470e-01,
          3.92739594e-01, 3.92739594e-01, 3.92739594e-01, 1.25982746e-01,
          4.71391827e-01, 2.90288687e-01, 2.10565031e-02, 1.15545494e-02,
          4.71391827e-01, 4.71391827e-01, 3.34525317e-01, 2.27586001e-01,
          2.83044100e-01, 5.09652793e-01, 5.09652793e-01, 2.81329820e-04,
          3.36598530e-02, 1.65927604e-01, 3.29919696e-01, 2.45438546e-01,
          1.33865237e-01, 5.09652793e-01, 5.42959154e-01, 1.35840669e-01,
          1.87297389e-01, 2.49357685e-01, 1.94886982e-01, 3.63296047e-02,
          4.64623701e-03, 4.99933720e-01, 5.42959154e-01, 1.71633080e-01,
          1.24136686e-01, 5.24114668e-02, 4.27642792e-01, 4.27642792e-01,
          1.83634564e-01, 4.27642792e-01, 4.27642792e-01, 4.27642792e-01 ]
      - [ 3.59334260e-01, 3.59334260e-01, 3.59334260e-01, 3.59334260e-01,
          9.69447047e-02, 2.88381547e-01, 3.59334260e-01, 3.59334260e-01,
          3.59334260e-01, 2.14604568e-02, 6.81331567e-03, 2.60182619e-01,
          8.49189579e-01, 3.27313662e-01, 3.50969061e-02, 4.53214683e-02,
          1.94683701e-01, 2.32119083e-01, 1.02447513e-02, 5.43115847e-03,
          2.00800613e-01, 8.12857568e-01, 5.23029149e-01, 1.89306159e-02,
          5.95998727e-02, 8.31744745e-02, 7.94178843e-02, 3.37962627e-01,
          5.07692865e-04, 1.18462313e-02, 2.59037882e-01, 4.03610706e-01,
          4.03610706e-01, 4.03610706e-01, 4.03610706e-01, 4.03610706e-01,
          1.18011542e-01, 4.81699944e-01, 4.81699944e-01, 1.10631280e-01,
          1.86026573e-01, 5.59640191e-02, 5.60846962e-02, 4.81699944e-01,
          4.81699944e-01, 3.74469301e-03, 9.26240114e-04, 2.32755169e-02,
          3.80667418e-01, 1.98863581e-01, 4.12961155e-01, 2.51418024e-01,
          5.36601424e-01, 5.36601424e-01, 1.84946868e-03, 0.,
          1.24568291e-01, 6.52978063e-01, 6.52978063e-01, 2.34183818e-01,
          1.78710282e-01, 1.69472665e-01, 9.84835550e-02, 8.97311047e-03,
          0., 1.72137134e-02, 5.68063080e-01, 5.77277839e-01,
          5.77277839e-01, 6.58416525e-02, 1.36510581e-02, 1.19221946e-02,
          8.10978562e-02, 4.91172403e-01, 4.91172403e-01, 3.41448002e-02,
          4.91172403e-01, 4.91172403e-01, 9.19910893e-02, 4.22334410e-02,
          1.10019036e-01, 1.39891192e-01, 4.63405177e-02, 3.07387230e-03,
          2.30886620e-02, 5.57102859e-01, 5.57102859e-01, 3.39177698e-01,
          3.74301553e-01, 3.10333461e-01, 4.59264278e-01, 3.05203766e-01,
          0., 7.81330243e-02, 2.64311671e-01, 3.81263942e-01,
          4.28082466e-01, 2.75379241e-01, 4.59264278e-01, 4.36960667e-01,
          9.85984653e-02, 2.11333543e-01, 8.15321431e-02, 4.36960667e-01,
          3.52187783e-01, 2.16401279e-01, 4.36960667e-01, 4.36960667e-01,
          4.17954981e-01, 4.17954981e-01, 2.26478159e-01, 2.53919661e-01,
          3.76997501e-01, 4.17954981e-01, 3.16342890e-01, 1.96973030e-02,
          3.36764395e-01, 5.80277205e-01, 5.80277205e-01, 2.89534149e-03,
          1.38931791e-03, 7.82447085e-02, 8.33526775e-02, 3.31011489e-02,
          3.12431138e-02, 5.52820325e-01, 5.58098137e-01, 5.58098137e-01,
          0., 0., 1.58266164e-02, 2.67622247e-02, 4.31454182e-02,
          2.39119574e-01, 5.58098137e-01, 2.25875974e-01, 1.55128445e-02,
          7.70783937e-03, 3.01018963e-03, 4.49646451e-02, 1.87900439e-02,
          3.10024898e-02, 6.85016990e-01, 6.85016990e-01 ]
      - [ 4.88959551e-01, 4.88959551e-01, 2.56354719e-01, 4.37969416e-01,
          4.88959551e-01, 1.24368243e-01, 3.66052426e-02, 3.86262953e-04,
          5.94112314e-02, 2.01754030e-02, 4.08919305e-02, 2.04532146e-02,
          5.92622280e-01, 7.65190363e-01, 2.08232701e-01, 9.83180255e-02,
          9.48095601e-03, 5.52278757e-03, 2.85382121e-04, 0., 0.,
          9.42666456e-02, 5.71641982e-01, 5.71641982e-01, 5.71641982e-01,
          7.12871030e-02, 2.85382121e-04, 4.58734967e-02, 4.94592577e-01,
          4.94592577e-01, 2.39697807e-02, 4.13886607e-02, 4.94592577e-01,
          4.94592577e-01, 1.00382902e-01, 4.58734967e-02, 1.78358424e-02,
          1.78624336e-02, 1.42960977e-02, 3.45603377e-01, 6.08531833e-01,
          4.37378973e-01, 5.45360148e-01, 1.20707490e-01, 6.43223105e-03,
          2.18064827e-03, 0., 1.91645639e-03, 7.02411592e-01,
          7.02411592e-01, 7.68888295e-02, 1.63717791e-02, 4.50251857e-03,
          3.94911831e-03, 1.47165882e-03, 1.18019013e-03, 2.81915069e-03,
          2.52221048e-01, 5.65410554e-01, 5.65410554e-01, 5.39611995e-01,
          1.27123613e-02, 2.47507007e-03, 9.96196363e-03, 4.07266855e-01,
          4.07266855e-01, 4.07266855e-01, 4.07266855e-01, 4.07266855e-01,
          4.07266855e-01, 2.50423755e-02, 2.72592250e-03, 4.02543098e-01,
          1.46805570e-01, 3.22656751e-01, 2.09661834e-02, 9.79216620e-02,
          3.20263803e-02, 3.57400686e-01, 4.92998600e-01, 5.69887877e-01,
          6.31930888e-01, 0., 4.00241977e-03, 7.98686296e-02,
          1.94998011e-01, 4.52632904e-02, 1.14816442e-01, 3.67922157e-01,
          6.31930888e-01, 3.95819962e-01, 2.36294165e-01, 1.32660165e-01,
          2.20532604e-02, 3.95819962e-01, 3.72503042e-01, 3.95819962e-01,
          3.95819962e-01, 3.95819962e-01, 6.21805608e-01, 3.32496017e-01,
          1.48043513e-01, 1.40735686e-01, 2.09092587e-01, 7.34485090e-02,
          7.99182877e-02, 1.12822026e-01, 6.21805608e-01, 4.70692933e-01,
          5.06165504e-01, 5.06165504e-01, 1.56526510e-02, 4.15036939e-02,
          2.28748959e-03, 9.09265038e-03, 5.22194132e-02, 5.06165504e-01,
          3.41468304e-01, 1.59740343e-03, 1.11340079e-03, 0., 0.,
          1.09566011e-01, 5.37284911e-01, 5.37284911e-01, 5.37284911e-01,
          3.99325162e-01, 4.64281797e-01, 4.64281797e-01, 0.,
          1.03551697e-03, 5.43662272e-02, 4.64281797e-01, 4.15450931e-01,
          1.16931401e-01, 5.63432455e-01, 5.63432455e-01, 2.04930663e-01,
          0., 7.37744122e-05, 1.04914815e-03, 1.91212539e-03,
          1.95961259e-03, 5.63432455e-01 ]
      - [ 4.68120503e-04, 2.58938380e-04, 7.76815170e-04, 2.19158381e-01,
          2.40068585e-01, 5.29174507e-01, 5.29174507e-01, 5.29174507e-01,
          2.21301049e-01, 1.91669969e-03, 3.47570539e-03, 3.06128860e-02,
          6.43023193e-01, 6.43023193e-01, 1.43851802e-01, 2.71823198e-01,
          1.58174187e-01, 2.14638039e-01, 2.68262867e-02, 9.78670642e-03,
          5.54630831e-02, 7.31463909e-01, 6.71224833e-01, 2.38182005e-02,
          2.86599379e-02, 2.51547936e-02, 3.46932448e-02, 5.46642207e-02,
          3.96247196e-04, 1.89106539e-03, 1.86861590e-01, 7.06515238e-02,
          1.24525856e-02, 6.49779379e-01, 6.49779379e-01, 3.25623035e-01,
          2.57488582e-02, 4.74508107e-03, 6.28594607e-02, 5.10447174e-02,
          2.00801447e-01, 3.60479981e-01, 5.21944463e-01, 5.21944463e-01,
          5.21944463e-01, 1.60746574e-02, 1.38425594e-02, 1.73170455e-02,
          2.53991872e-01, 1.57416865e-01, 5.60566001e-02, 4.31411676e-02,
          6.70173168e-01, 6.70173168e-01, 1.00852316e-02, 1.20658092e-02,
          2.87358984e-02, 5.20102739e-01, 4.64954793e-01, 4.79507037e-02,
          1.58583313e-01, 4.57261711e-01, 5.20102739e-01, 1.25807941e-01,
          3.62077053e-03, 2.10984889e-03, 5.53632975e-01, 5.53632975e-01,
          2.14006469e-01, 3.17731053e-01, 4.35540795e-01, 1.70762062e-01,
          1.87061802e-02, 8.97104144e-02, 5.02341032e-01, 4.41745281e-01,
          5.02341032e-01, 5.02341032e-01, 6.26544803e-02, 1.46557346e-01,
          9.48786139e-02, 5.64731285e-02, 5.45656355e-03, 1.90671962e-02,
          1.33121023e-02, 5.47316909e-01, 5.47316909e-01, 8.34116340e-02,
          3.15917432e-01, 5.33761919e-01, 4.04144675e-01, 1.19456507e-01,
          3.07417940e-04, 4.11716737e-02, 4.04144675e-01, 4.04144675e-01,
          4.04144675e-01, 4.04144675e-01, 4.04144675e-01, 4.74763870e-01,
          4.93818894e-02, 4.82698483e-03, 4.74763870e-01, 4.74763870e-01,
          1.29536688e-01, 7.60105625e-02, 2.61984497e-01, 4.74763870e-01,
          3.96620929e-01, 3.96620929e-01, 3.52571160e-01, 1.05809763e-01,
          3.96620929e-01, 3.96620929e-01, 2.35653818e-01, 1.86388403e-01,
          3.75538975e-01, 6.01819754e-01, 2.65192777e-01, 4.71452338e-04,
          5.22604387e-04, 3.29192370e-01, 4.08060104e-01, 1.78009737e-02,
          1.56455822e-02, 5.34821510e-01, 6.83788598e-01, 4.74669605e-01,
          0., 0., 5.73520251e-02, 4.68926616e-02, 9.38931573e-03,
          5.27771795e-03, 5.42855024e-01, 5.72920680e-01, 9.05982181e-02,
          3.04929155e-04, 0., 0., 1.11912703e-03, 3.68161872e-02,
          5.72920680e-01, 5.72920680e-01 ]
      - [ 4.15929506e-04, 7.38996500e-03, 3.10760587e-02, 7.04243124e-01,
          7.04243124e-01, 5.71292685e-03, 1.38366930e-04, 0.,
          4.15929506e-04, 0., 2.18366808e-03, 9.21860058e-03,
          7.04569221e-01, 7.04569221e-01, 6.44211937e-03, 0., 0., 0., 0.,
          3.93530499e-04, 1.23739121e-02, 4.61531192e-01, 8.28544557e-01,
          3.03343654e-01, 6.09793887e-03, 4.53857798e-03, 2.46303831e-03,
          0., 0., 4.78746311e-04, 9.75783076e-03, 7.04301059e-01,
          7.04301059e-01, 2.79266518e-02, 3.60412220e-03, 1.13839924e-03,
          2.77095172e-03, 0., 0., 4.89497364e-01, 6.12508774e-01,
          6.12508774e-01, 6.24533072e-02, 5.17206872e-03, 2.77095172e-03,
          0., 0., 0., 3.28492314e-01, 8.26517880e-01, 4.48002785e-01,
          2.41569546e-03, 7.75628432e-04, 0., 1.09078242e-02,
          2.59634876e-03, 0., 3.65719944e-02, 8.94285619e-01,
          4.35714453e-01, 3.57256620e-03, 1.06508099e-03, 2.51590181e-03,
          9.41366926e-02, 2.68124342e-02, 3.10494029e-03, 4.56867088e-03,
          7.00813472e-01, 7.00813472e-01, 1.45445447e-04, 4.84818156e-05,
          3.33747268e-02, 3.50692034e-01, 1.96381076e-03, 9.27836727e-03,
          8.31702948e-02, 6.43057823e-01, 6.43057823e-01, 4.31773514e-02,
          8.31977744e-03, 1.86030656e-01, 4.84216899e-01, 5.24792187e-02,
          1.16499141e-01, 2.61803716e-01, 4.84216899e-01, 4.84216899e-01,
          9.35877413e-02, 3.00524775e-02, 4.44113344e-01, 5.61188281e-01,
          5.61188281e-01, 6.40222803e-03, 2.02994328e-02, 5.61188281e-01,
          1.91331819e-01, 7.97732100e-02, 2.42517050e-02, 7.47414157e-02,
          6.36830330e-01, 6.36830330e-01, 5.51356971e-02, 7.73743400e-03,
          2.55126148e-01, 1.06108904e-01, 9.75975185e-04, 3.25325091e-04,
          3.21071297e-01, 7.03303039e-01, 1.24658169e-02, 3.77018638e-02,
          9.95883439e-03, 3.76727395e-02, 2.44719926e-02, 3.66423046e-03,
          1.22141000e-03, 7.03303039e-01, 7.04194486e-01, 1.51558435e-02,
          8.88791867e-03, 1.28012691e-02, 8.88018403e-03, 2.82415049e-03,
          2.38584615e-02, 7.87630118e-03, 7.04194486e-01, 6.35482132e-01,
          4.20569628e-01, 4.35689138e-03, 8.27930868e-04, 2.62047770e-03,
          2.39240634e-03, 7.11983889e-02, 6.32454529e-02, 6.35482132e-01,
          4.68342930e-01, 4.68342930e-01, 4.68342930e-01, 3.06645095e-01,
          1.01132542e-01, 0., 7.28750527e-02, 9.14981216e-02,
          4.68342930e-01 ]
      - [ 3.30440737e-02, 4.62764725e-02, 1.48780337e-02, 0.,
          1.20254256e-01, 9.28060174e-01, 3.03174257e-01, 1.23635128e-01,
          6.57966286e-02, 4.64058900e-03, 6.32816169e-04, 1.89844845e-03,
          0., 5.36071807e-02, 8.58520687e-01, 4.99475718e-01,
          4.40934561e-02, 7.47016771e-03, 8.64609480e-02, 1.39069274e-01,
          5.15021831e-02, 0., 9.85218138e-02, 6.70946598e-01,
          6.70946598e-01, 2.27495715e-01, 4.51011099e-02, 4.50702339e-01,
          6.27134442e-01, 6.27134442e-01, 0., 3.13052372e-03,
          3.55429598e-03, 1.72194131e-02, 5.24234306e-03, 6.05337135e-02,
          4.14113142e-02, 3.27352621e-02, 0., 0., 8.94359872e-02,
          9.64973450e-01, 2.19931379e-01, 5.83399320e-03, 3.25670000e-03,
          5.62729061e-01, 5.62729061e-01, 7.78355543e-03, 0.,
          5.15302196e-02, 5.62729061e-01, 9.69883949e-02, 5.75205460e-02,
          1.70168519e-01, 4.94951636e-01, 3.25622350e-01, 2.58554090e-02,
          1.85812381e-03, 7.25566223e-03, 1.03559718e-01, 3.77685219e-01,
          4.94951636e-01, 4.94951636e-01, 2.57371403e-02, 5.56227267e-01,
          8.17190588e-01, 3.58066186e-02, 8.20244756e-03, 5.22666005e-03,
          5.75287379e-02, 8.94882381e-02, 3.60386111e-02, 5.60457170e-01,
          5.60457170e-01, 1.05473504e-03, 1.18102273e-03, 9.93984193e-02,
          5.60457170e-01, 2.02101409e-01, 2.85269581e-02, 2.29158159e-02,
          6.91686869e-01, 6.91686869e-01, 4.21324279e-03, 4.56282962e-03,
          2.22929455e-02, 2.43402906e-02, 1.04884833e-01, 1.39719784e-01,
          6.76990896e-02, 3.61716926e-01, 1.52878895e-01, 1.04919204e-03,
          6.21651765e-03, 7.41531141e-03, 1.61402430e-02, 6.33148313e-01,
          6.33148313e-01, 1.93283707e-01, 1.13028567e-02, 2.60881305e-01,
          7.59792328e-01, 5.13745174e-02, 2.73629390e-02, 2.37464774e-02,
          4.94534343e-01, 3.13532650e-01, 1.12442784e-02, 5.29010057e-01,
          5.29010057e-01, 3.76103520e-01, 5.29010057e-01, 6.13228120e-02,
          1.52855841e-02, 3.34808789e-02, 6.39621392e-02, 6.70946836e-02,
          4.51354951e-01, 4.51354951e-01, 1.04295500e-01, 2.90841967e-01,
          4.51354951e-01, 1.39611095e-01, 4.51354951e-01, 2.42999822e-01,
          8.12379271e-02, 1.43906502e-02, 1.32339904e-02, 1.49023747e-02,
          2.99496334e-02, 2.40595005e-02, 5.43350819e-03, 7.01741159e-01,
          7.01741159e-01, 7.74859637e-02, 1.01453766e-01, 4.71575499e-01,
          4.96935517e-01, 4.70850850e-03, 6.31621294e-03, 6.62505743e-04,
          4.96935517e-01, 4.96935517e-01, 1.46503836e-01 ]
      - [ 3.75798345e-02, 1.24360202e-02, 3.87731314e-01, 6.13453746e-01,
          2.76595026e-01, 3.41769271e-02, 6.13453746e-01, 1.05355859e-01,
          2.34268028e-02, 1.13433123e-01, 1.23129092e-01, 4.82797533e-01,
          4.03691858e-01, 2.91392326e-01, 4.82797533e-01, 4.82797533e-01,
          1.21028163e-01, 7.31117353e-02, 1.34323612e-01, 2.57732332e-01,
          9.36291218e-02, 2.95116723e-01, 4.96236593e-01, 5.19366384e-01,
          5.19366384e-01, 1.66579261e-01, 3.16512361e-02, 8.70160535e-02,
          5.52863955e-01, 5.52863955e-01, 5.52863955e-01, 2.59664536e-01,
          4.47245054e-02, 2.04274748e-02, 6.74590468e-03, 6.54164283e-03,
          7.76303262e-02, 1.22550324e-01, 6.88637018e-01, 6.88637018e-01,
          4.99297455e-02, 1.10391572e-01, 7.11052194e-02, 2.11563408e-02,
          5.87846003e-02, 4.44908813e-02, 2.15109840e-01, 5.08614004e-01,
          5.08614004e-01, 3.49458270e-02, 4.06358361e-01, 5.08614004e-01,
          4.98424061e-02, 4.20888774e-02, 1.43870518e-01, 4.84560251e-01,
          4.84560251e-01, 1.07998960e-01, 1.09435350e-01, 4.84560251e-01,
          4.84560251e-01, 1.07669048e-01, 5.87056763e-03, 1.65861592e-01,
          6.94295108e-01, 6.94295108e-01, 2.24690232e-02, 9.54583846e-03,
          5.40786539e-04, 9.71965725e-04, 4.42040106e-03, 2.91682445e-02,
          2.41302297e-01, 6.44237757e-01, 6.44237757e-01, 2.11113647e-01,
          1.95199832e-01, 1.32863477e-01, 5.35743013e-02, 1.39392316e-02,
          4.32140864e-02, 4.53171760e-01, 5.51461399e-01, 5.51461399e-01,
          1.10350333e-01, 1.51209235e-02, 2.86684901e-01, 2.64202178e-01,
          9.36216768e-03, 1.28159195e-01, 4.29828167e-01, 4.29828167e-01,
          4.29828167e-01, 2.30249390e-01, 1.53620303e-01, 4.29828167e-01,
          1.59053683e-01, 1.68234125e-01, 3.55643958e-01, 3.69802505e-01,
          3.69802505e-01, 3.69802505e-01, 3.68506432e-01, 1.94132105e-01,
          4.79364209e-02, 3.69802505e-01, 3.69802505e-01, 3.69802505e-01,
          5.43632030e-01, 5.43632030e-01, 5.43632030e-01, 0.,
          4.09410149e-02, 1.53696388e-01, 1.99241921e-01, 4.81015109e-02,
          2.01628059e-01, 4.21556920e-01, 4.21556920e-01, 4.21556920e-01,
          1.43400412e-02, 2.89726317e-01, 4.21556920e-01, 4.21556920e-01,
          3.62447985e-02, 1.47570565e-01, 3.30035269e-01, 3.88291806e-01,
          3.88291806e-01, 3.88291806e-01, 3.88291806e-01, 3.88291806e-01,
          3.37375373e-01, 5.20580113e-02, 1.29664719e-01, 3.54033023e-01,
          1.32003635e-01, 3.76925319e-01, 3.76925319e-01, 3.76925319e-01,
          3.21539268e-02, 3.76925319e-01, 3.76925319e-01, 3.76925319e-01 ]
      - [ 2.78117388e-01, 2.26185411e-01, 2.17660889e-01, 6.99945912e-03,
          6.96561337e-02, 2.93750837e-02, 4.02800083e-01, 5.70266664e-01,
          5.70266664e-01, 6.05123162e-01, 1.78803697e-01, 2.23413691e-01,
          2.37700753e-02, 3.20343487e-03, 1.93127673e-02, 8.88732374e-02,
          4.13374901e-01, 6.05123162e-01, 5.32032430e-01, 5.32032430e-01,
          5.32032430e-01, 8.20587352e-02, 2.26068851e-02, 1.26963854e-02,
          1.94944322e-01, 9.68038961e-02, 3.01215976e-01, 3.52750197e-02,
          6.90564439e-02, 6.14053309e-02, 4.15479625e-03, 2.42820889e-01,
          5.54771364e-01, 5.54771364e-01, 5.54771364e-01, 4.88188639e-02,
          1.74521104e-01, 3.72370273e-01, 4.36022431e-01, 3.67851853e-01,
          4.46128130e-01, 2.91837513e-01, 4.46128130e-01, 9.85551029e-02,
          8.97386149e-02, 1.23111479e-01, 4.28229094e-01, 4.28229094e-01,
          1.80494323e-01, 5.74398860e-02, 2.40654573e-01, 4.28229094e-01,
          4.28229094e-01, 3.91475439e-01, 2.61039902e-02, 5.86455584e-01,
          5.86455584e-01, 2.98103839e-01, 1.45521862e-02, 3.24465446e-02,
          4.15190667e-01, 2.01820403e-01, 4.85494919e-02, 9.78438705e-02,
          3.51924598e-02, 1.60046697e-01, 1.88195966e-02, 1.98194813e-02,
          1.62677448e-02, 6.85866296e-01, 6.85866296e-01, 1.22022793e-01,
          8.10553804e-02, 7.96801075e-02, 4.76240724e-01, 4.76240724e-01,
          4.76240724e-01, 4.26391840e-01, 2.93977171e-01, 1.52908936e-01,
          1.01464450e-01, 2.15387531e-02, 2.48168156e-01, 4.59840387e-01,
          4.59840387e-01, 2.53145039e-01, 1.40416220e-01, 4.59840387e-01,
          4.59840387e-01, 6.11847527e-02, 0., 5.39618552e-01,
          5.39618552e-01, 5.39618552e-01, 2.52351705e-02, 9.42694172e-02,
          2.64414430e-01, 2.03833655e-01, 7.74407620e-03, 4.01363410e-02,
          4.50402051e-02, 3.80988270e-01, 9.96368453e-02, 6.18843641e-03,
          2.44655311e-02, 6.38310254e-01, 6.38310254e-01, 1.39252290e-01,
          5.34280479e-01, 2.38230303e-01, 3.98052007e-01, 3.11029971e-01,
          1.15144461e-01, 1.36495769e-01, 1.70983776e-01, 2.25143552e-01,
          5.34280479e-01, 2.08232731e-01, 4.19729233e-01, 4.19729233e-01,
          4.19729233e-01, 2.47808471e-02, 1.88655015e-02, 3.62609476e-01,
          4.19729233e-01, 3.39558780e-01, 3.29787348e-04, 5.23107111e-01,
          5.23107111e-01, 5.23107111e-01, 1.03497952e-02, 1.92623064e-02,
          2.34920576e-01, 3.43648553e-01, 9.60844848e-03, 9.46186930e-02,
          6.97738379e-02, 5.13173997e-01, 3.50325316e-01, 7.10153878e-02,
          1.57481104e-01, 5.13173997e-01, 5.13173997e-01, 1.96060777e-01 ]
      - [ 5.83657861e-01, 5.83657861e-01, 5.38873613e-01, 9.94543806e-02,
          0., 0., 0., 2.20039524e-02, 1.09994240e-01, 5.46916902e-01,
          5.46916902e-01, 5.46916902e-01, 2.23331973e-01, 1.03107868e-02,
          2.34875306e-02, 9.79792625e-02, 1.86381415e-01, 4.80720438e-02,
          7.43214488e-02, 1.85367107e-01, 2.42380708e-01, 1.45327359e-01,
          1.40512809e-01, 5.32071412e-01, 5.32071412e-01, 5.32071412e-01,
          7.67436773e-02, 1.04557192e-02, 2.24975701e-02, 4.67817515e-01,
          4.67817515e-01, 2.20111668e-01, 2.31809780e-01, 4.67817515e-01,
          4.67817515e-01, 1.30821019e-01, 4.24125642e-01, 4.24125642e-01,
          4.24125642e-01, 1.75691679e-01, 2.37921149e-01, 5.23961931e-02,
          7.83022270e-02, 4.24125642e-01, 4.24125642e-01, 9.01737884e-02,
          4.05247658e-01, 4.05247658e-01, 4.05247658e-01, 4.05247658e-01,
          4.05247658e-01, 4.05247658e-01, 4.09295410e-02, 2.81274896e-02,
          4.83371653e-02, 3.70394051e-01, 3.15723360e-01, 4.52867836e-01,
          4.96544689e-01, 4.96544689e-01, 2.28729337e-01, 7.27929696e-02,
          3.59066715e-03, 4.35341522e-02, 2.00145781e-01, 4.31686610e-01,
          4.31686610e-01, 3.79895657e-01, 1.85635090e-01, 4.31686610e-01,
          4.31686610e-01, 1.71871737e-01, 6.99263141e-02, 6.42272010e-02,
          6.93425983e-02, 4.42061007e-01, 4.42061007e-01, 4.42061007e-01,
          4.42061007e-01, 4.42061007e-01, 6.83480948e-02, 1.08968988e-01,
          2.63227731e-01, 1.91569060e-01, 3.61783743e-01, 4.98189896e-01,
          4.98189896e-01, 4.98189896e-01, 3.75669934e-02, 1.68643277e-02,
          3.01425159e-01, 4.41214889e-01, 4.41214889e-01, 1.56423479e-01,
          4.41214889e-01, 4.41214889e-01, 1.59216255e-01, 2.18097329e-01,
          1.69318423e-01, 9.10723135e-02, 3.26227933e-01, 3.78401250e-01,
          3.37314695e-01, 3.78401250e-01, 3.78401250e-01, 3.78401250e-01,
          3.78401250e-01, 2.27556467e-01, 3.04555565e-01, 1.40128329e-01,
          3.45968992e-01, 3.09732646e-01, 3.78447086e-01, 3.96376044e-01,
          3.96376044e-01, 3.17644954e-01, 3.31168741e-01, 5.36615193e-01,
          5.36615193e-01, 1.69747740e-01, 9.31978226e-02, 2.03742936e-01,
          3.97986144e-01, 3.09847951e-01, 2.14269608e-01, 1.98514178e-01,
          3.98804486e-01, 3.98804486e-01, 3.98804486e-01, 2.10168332e-01,
          1.42374694e-01, 2.62500465e-01, 2.59697974e-01, 3.98804486e-01,
          3.98804486e-01, 4.14593756e-01, 1.68861762e-01, 9.43682417e-02,
          4.57513258e-02, 3.11296701e-01, 4.14593756e-01, 4.14593756e-01,
          4.14593756e-01, 4.14593756e-01 ]
      - [ 3.14502358e-01, 6.81025922e-01, 6.50621295e-01, 5.08387126e-02,
          2.39808392e-02, 1.09510105e-02, 3.87608372e-02, 1.26792649e-02,
          4.73560058e-02, 6.72920570e-02, 1.05964854e-01, 3.80675197e-02,
          1.22705463e-03, 7.87162408e-03, 6.83755934e-01, 6.83755934e-01,
          2.01719701e-01, 1.30240424e-02, 4.13200259e-01, 4.37546104e-01,
          4.37546104e-01, 1.98480878e-02, 5.52265998e-03, 4.37546104e-01,
          4.37546104e-01, 2.36465409e-01, 5.26134297e-02, 2.73511589e-01,
          3.05574924e-01, 3.44005495e-01, 3.44005495e-01, 3.44005495e-01,
          3.44005495e-01, 3.44005495e-01, 3.44005495e-01, 3.44005495e-01,
          4.45556864e-02, 4.77225035e-01, 3.02521795e-01, 1.26956820e-01,
          6.58888593e-02, 5.69248676e-01, 5.69248676e-01, 6.65573776e-02,
          9.48071573e-03, 7.25881681e-02, 5.21704853e-01, 3.64602149e-01,
          2.66054110e-03, 3.25271138e-03, 5.38224280e-01, 5.38224280e-01,
          6.96897656e-02, 5.04379277e-04, 4.69284832e-01, 4.69284832e-01,
          4.69284832e-01, 2.26439722e-03, 0., 2.65820414e-01,
          4.09996808e-01, 1.82180449e-01, 2.50350118e-01, 3.70642841e-01,
          9.98748913e-02, 7.55374730e-02, 1.93152487e-01, 1.80899322e-01,
          5.44214100e-02, 5.44018522e-02, 6.18391097e-01, 6.18391097e-01,
          1.04736499e-02, 4.58073951e-02, 4.46547270e-02, 2.38976888e-02,
          4.52329703e-02, 6.94796860e-01, 6.94796860e-01, 1.44061521e-01,
          2.41573271e-03, 2.42046475e-01, 4.81953144e-01, 4.81953144e-01,
          2.90802424e-03, 3.20394360e-03, 4.81953144e-01, 4.81953144e-01,
          8.63442123e-02, 3.21654161e-03, 4.23711747e-01, 6.10147655e-01,
          6.10147655e-01, 2.22405326e-02, 1.01638045e-02, 6.05099760e-02,
          1.45683363e-01, 1.25442699e-01, 1.69106722e-01, 1.96221203e-01,
          2.75204852e-02, 0., 0., 4.35824931e-01, 2.20240191e-01,
          4.89014834e-01, 4.89014834e-01, 4.89014834e-01, 3.25501002e-02,
          4.20288682e-01, 2.26530895e-01, 3.67297567e-02, 1.15413956e-01,
          6.06263518e-01, 6.06263518e-01, 1.22753844e-01, 8.91026948e-03,
          3.42085123e-01, 6.39912307e-01, 6.39912307e-01, 3.59401815e-02,
          3.69460434e-02, 1.65225089e-01, 1.62774965e-01, 3.39758955e-02,
          2.70248600e-03, 1.77173555e-01, 5.06072581e-01, 5.06072581e-01,
          5.70207313e-02, 5.06072581e-01, 3.38461339e-01, 2.54236847e-01,
          1.12686560e-01, 9.20764171e-03, 2.28252858e-02, 1.87053543e-03,
          0., 0., 1.98360711e-01, 6.22362792e-01, 6.22362792e-01,
          4.19758976e-01, 5.51931970e-02 ]
      - [ 3.52228552e-01, 3.75082761e-01, 3.96597683e-01, 3.92291278e-01,
          3.96597683e-01, 3.96597683e-01, 3.09747785e-01, 4.72203195e-02,
          8.57369974e-02, 2.10632473e-01, 1.50929792e-02, 6.76269308e-02,
          2.02160135e-01, 6.22393548e-01, 6.22393548e-01, 1.24724217e-01,
          1.47450656e-01, 3.02827448e-01, 1.26457199e-01, 1.15922473e-01,
          4.27347809e-01, 4.07021582e-01, 5.24040818e-01, 5.24040818e-01,
          1.90242365e-01, 8.46490785e-02, 1.56361997e-01, 2.24591509e-01,
          3.39435786e-01, 3.84978533e-01, 3.84978533e-01, 3.84978533e-01,
          3.63536209e-01, 3.84978533e-01, 2.23419070e-01, 2.35769629e-01,
          4.14008111e-01, 4.14008111e-01, 3.32845539e-01, 5.74510098e-02,
          1.87880263e-01, 4.14008111e-01, 4.14008111e-01, 1.73059762e-01,
          3.61826003e-01, 1.67255357e-01, 9.78572574e-03, 3.34293433e-02,
          5.33962362e-02, 3.75622749e-01, 5.74974239e-01, 5.74974239e-01,
          2.53052533e-01, 3.09678793e-01, 3.71780246e-01, 3.79702479e-01,
          3.85954708e-01, 3.85954708e-01, 3.85954708e-01, 3.85954708e-01,
          2.87769765e-01, 4.46161032e-02, 1.81943595e-01, 3.73917460e-01,
          3.73917460e-01, 3.73917460e-01, 3.73917460e-01, 3.73917460e-01,
          3.23220372e-01, 3.36219430e-01, 1.74679965e-01, 2.21731603e-01,
          1.78067133e-01, 9.00959298e-02, 1.23459451e-01, 1.15440980e-01,
          5.50432384e-01, 5.50432384e-01, 5.50432384e-01, 7.10283071e-02,
          1.10166900e-01, 3.06692332e-01, 3.79372202e-03, 1.80549826e-03,
          7.08192512e-02, 3.41236502e-01, 4.77473587e-01, 4.77473587e-01,
          3.09438556e-01, 4.77473587e-01, 3.88201714e-01, 3.88201714e-01,
          3.88201714e-01, 3.88201714e-01, 3.03887635e-01, 3.88201714e-01,
          5.63922487e-02, 3.08984555e-02, 3.82278115e-01, 2.99184203e-01,
          3.55337232e-01, 3.55337232e-01, 3.55337232e-01, 3.55337232e-01,
          2.60078698e-01, 3.55337232e-01, 3.55337232e-01, 2.85850555e-01,
          4.42640632e-01, 4.42640632e-01, 1.04802050e-01, 9.47502404e-02,
          3.95341128e-01, 4.42640632e-01, 4.42640632e-01, 1.48378760e-01,
          1.16549008e-01, 4.89497483e-01, 4.89497483e-01, 5.03411517e-04,
          3.77835557e-02, 1.70649692e-01, 6.11451790e-02, 4.89075147e-02,
          4.89497483e-01, 4.89497483e-01, 3.50183934e-01, 4.42137063e-01,
          3.75285178e-01, 3.38366657e-01, 1.67662963e-01, 3.42763923e-02,
          4.33881059e-02, 4.42137063e-01, 4.42137063e-01, 2.12712362e-01,
          4.33304220e-01, 2.37081975e-01, 1.36163130e-01, 1.35190934e-01,
          4.59714413e-01, 4.59714413e-01, 4.32040453e-01, 2.45052442e-01 ]
      - [ 1.01591963e-02, 2.55266228e-03, 5.85996080e-03, 5.58796991e-03,
          1.76985096e-02, 1.03296163e-02, 7.04372823e-01, 7.04372823e-01,
          9.56593268e-03, 5.22823445e-02, 2.15288088e-01, 6.64789855e-01,
          6.64789855e-01, 1.71627775e-01, 2.52563283e-02, 1.30690753e-01,
          1.12519346e-01, 2.35587526e-02, 1.48704186e-01, 4.51869145e-02,
          4.88307714e-01, 4.88307714e-01, 4.88307714e-01, 4.88307714e-01,
          4.01916429e-02, 1.32697048e-02, 1.24092653e-01, 4.65184122e-01,
          3.33774388e-02, 8.43989756e-03, 8.35775957e-03, 5.49595892e-01,
          5.49595892e-01, 4.06942144e-02, 1.35368956e-02, 4.13412094e-01,
          5.89568540e-03, 4.54591791e-04, 7.74931803e-04, 0.,
          3.09361070e-01, 5.47343612e-01, 5.47343612e-01, 5.47343612e-01,
          6.26831641e-03, 3.87738287e-01, 3.87738287e-01, 3.87738287e-01,
          3.87738287e-01, 3.87738287e-01, 1.82074353e-01, 3.87738287e-01,
          2.31169075e-01, 8.65466595e-02, 4.90674883e-01, 4.90674883e-01,
          2.64439702e-01, 2.63171226e-01, 4.90674883e-01, 3.44821990e-01,
          1.55943423e-03, 8.30606805e-05, 1.21332370e-01, 6.37213171e-01,
          4.33272809e-01, 1.93787378e-03, 3.25048430e-04, 3.35245252e-01,
          3.17820013e-01, 3.88014392e-04, 3.29615548e-04, 4.31820899e-01,
          4.09300715e-01, 1.12028280e-02, 9.67521046e-04, 0.,
          4.09300715e-01, 4.09300715e-01, 3.97680044e-01, 4.09300715e-01,
          4.09300715e-01, 3.33075553e-01, 5.15164435e-01, 5.15164435e-01,
          3.45967561e-02, 2.37694159e-02, 2.84793675e-02, 2.91236907e-01,
          3.62557650e-01, 3.66451740e-01, 5.71566463e-01, 5.71566463e-01,
          5.71566463e-01, 1.12424366e-01, 7.90151476e-04, 0., 0.,
          9.21681290e-04, 3.98373865e-02, 5.11219203e-01, 5.11219203e-01,
          4.89560783e-01, 3.91355567e-02, 1.65210059e-03, 0., 0.,
          6.30988972e-03, 4.80583370e-01, 4.67168003e-01, 1.63633842e-02,
          6.05923403e-03, 0., 6.90212846e-03, 6.60954975e-03,
          5.31891882e-01, 5.31891882e-01, 4.58506882e-01, 1.32188365e-01,
          3.92498821e-01, 5.18059254e-01, 2.73571257e-02, 6.45192862e-02,
          1.14325210e-02, 5.18059254e-01, 5.18059254e-01, 1.14450499e-01,
          4.93081100e-02, 6.81033611e-01, 7.23789394e-01, 5.14202975e-02,
          3.70316533e-03, 0., 6.94842252e-04, 4.10095323e-04,
          2.74973805e-03, 4.97565597e-01, 4.97565597e-01, 4.97565597e-01,
          5.73446881e-03, 2.86206286e-02, 2.42216010e-02, 1.65901128e-02,
          5.50503209e-02, 4.97565597e-01 ]
      - [ 4.09838632e-02, 2.25558691e-03, 0., 0., 6.86165571e-01,
          6.86165571e-01, 2.20279664e-01, 2.54779328e-02, 2.54332721e-02,
          5.03125906e-01, 1.16820008e-01, 7.85467494e-03, 9.08482913e-03,
          3.33489001e-01, 5.27565897e-01, 5.27565897e-01, 1.38666645e-01,
          2.01766223e-01, 4.03593063e-01, 6.38258398e-01, 6.38258398e-01,
          4.92288731e-02, 0., 3.12521611e-03, 1.24632614e-02,
          2.83880513e-02, 1.12242952e-01, 5.74764252e-01, 5.74764252e-01,
          5.74764252e-01, 3.81167084e-02, 0., 0., 0., 1.92051812e-03,
          4.17396240e-02, 6.25101328e-01, 5.92058837e-01, 5.69389667e-04,
          3.64793977e-03, 1.46897599e-01, 2.64376789e-01, 1.49309393e-02,
          8.61605331e-02, 3.91585529e-01, 5.28778493e-01, 6.27648160e-02,
          4.04707316e-05, 3.11485812e-04, 5.56701934e-03, 6.43095467e-03,
          3.89726907e-01, 5.28778493e-01, 5.28778493e-01, 1.62104845e-01,
          2.56175339e-01, 6.09045208e-01, 4.25443612e-02, 1.65306795e-02,
          1.35607431e-02, 3.52281541e-01, 5.56305587e-01, 3.08599591e-01,
          5.61083481e-03, 1.52625218e-01, 9.65363145e-01, 1.87267736e-01,
          1.81581476e-03, 0., 6.16184785e-04, 6.13690820e-04,
          6.66347938e-03, 6.30294263e-01, 6.30294263e-01, 7.43645796e-05,
          2.10961234e-02, 6.65918887e-02, 7.84416741e-04, 1.27737358e-01,
          2.89492995e-01, 3.06858093e-01, 1.56826645e-01, 1.55882435e-02,
          0., 1.89262594e-03, 3.87731101e-03, 1.25229731e-03,
          6.84870303e-01, 6.84870303e-01, 1.73811868e-01, 5.38938753e-02,
          1.61885262e-01, 5.65561950e-01, 1.82422642e-02, 4.80306782e-02,
          1.59245152e-02, 5.65561950e-01, 5.65561950e-01, 5.25989272e-02,
          9.39062238e-03, 3.05859953e-01, 9.27694261e-01, 1.90767929e-01,
          5.27627394e-03, 0., 3.53195152e-04, 1.72540196e-03,
          8.12691730e-03, 4.53356087e-01, 4.30205286e-01, 1.50062665e-01,
          4.09006596e-01, 4.53356087e-01, 1.17617570e-01, 2.90570736e-01,
          2.39369139e-01, 2.32300937e-01, 2.15733107e-02, 2.90441755e-02,
          1.26474053e-02, 1.16852699e-02, 1.08514437e-02, 0.,
          6.14958525e-01, 6.14958525e-01, 4.85580742e-01, 4.96199131e-01,
          7.72104189e-02, 6.50173798e-02, 0., 1.05097506e-03, 0.,
          4.96199131e-01, 4.96199131e-01, 4.96199131e-01, 4.65046018e-01,
          6.01920664e-01, 6.01920664e-01, 3.54117379e-02, 2.10225917e-04,
          0., 1.59387756e-02, 5.72360586e-03, 2.27077529e-01 ]
      - [ 4.07062113e-01, 4.07062113e-01, 6.27081543e-02, 3.56955454e-02,
          1.02941036e-01, 4.07062113e-01, 4.07062113e-01, 4.07062113e-01,
          3.89399886e-01, 3.76280576e-01, 3.76280576e-01, 3.76280576e-01,
          3.65176946e-01, 1.65255308e-01, 1.13360666e-01, 3.38808596e-01,
          3.76280576e-01, 3.76280576e-01, 3.80906790e-01, 3.80906790e-01,
          3.80906790e-01, 3.80906790e-01, 3.00226301e-01, 3.80906790e-01,
          1.03159957e-01, 1.57724068e-01, 3.80906790e-01, 4.01228994e-01,
          4.01228994e-01, 1.44443801e-03, 0., 2.53333688e-01,
          4.01228994e-01, 3.56213599e-01, 4.01228994e-01, 4.01228994e-01,
          4.54557002e-01, 4.54557002e-01, 4.21797484e-01, 7.94572458e-02,
          3.85786027e-01, 4.54557002e-01, 1.36041135e-01, 1.23134948e-01,
          9.41620618e-02, 3.41090947e-01, 1.90222934e-01, 2.21264288e-01,
          1.60755381e-01, 4.20836031e-01, 4.20836031e-01, 4.20836031e-01,
          4.20836031e-01, 2.45063737e-01, 3.89111578e-01, 3.89111578e-01,
          3.89111578e-01, 3.89111578e-01, 3.89111578e-01, 3.89111578e-01,
          1.97718233e-01, 1.83223829e-01, 1.22484274e-01, 4.50396746e-01,
          4.50396746e-01, 6.26715720e-02, 3.50008830e-02, 3.34351003e-01,
          4.50396746e-01, 4.50396746e-01, 8.01181495e-02, 2.46393979e-01,
          4.24454629e-01, 4.52529877e-01, 1.85255662e-01, 2.62689263e-01,
          4.52529877e-01, 4.52529877e-01, 2.85095125e-01, 7.34106218e-03,
          1.27709895e-01, 4.07447487e-01, 4.07447487e-01, 2.50132326e-02,
          2.34070152e-01, 4.07447487e-01, 4.07447487e-01, 2.18538254e-01,
          4.07447487e-01, 2.50377625e-01, 1.39347062e-01, 2.63529092e-01,
          3.98287565e-01, 3.98287565e-01, 3.20592463e-01, 3.98287565e-01,
          3.98287565e-01, 3.98287565e-01, 1.05884448e-01, 4.80435818e-01,
          9.61387828e-02, 3.49632949e-01, 2.36773863e-01, 4.80435818e-01,
          4.80435818e-01, 2.94659972e-01, 2.10087076e-02, 1.67128950e-01,
          1.28219858e-01, 5.11218570e-02, 3.88646871e-01, 2.63431281e-01,
          3.89003217e-01, 3.89003217e-01, 3.89003217e-01, 3.89003217e-01,
          3.89003217e-01, 2.26495668e-01, 3.48750234e-01, 3.48750234e-01,
          3.06313992e-01, 3.48750234e-01, 3.48750234e-01, 3.48750234e-01,
          3.48750234e-01, 3.48750234e-01, 4.07579094e-01, 4.07579094e-01,
          4.07579094e-01, 4.07579094e-01, 4.07579094e-01, 3.19511056e-01,
          2.25800484e-01, 9.43497196e-02, 5.78771830e-02, 3.85430187e-01,
          3.52012157e-01, 3.85430187e-01, 3.85430187e-01, 3.85430187e-01,
          3.85430187e-01, 1.31753430e-01, 9.17163771e-03, 3.34681332e-01 ]
      - [ 0., 0., 0., 0., 2.34484777e-01, 6.75713003e-01, 6.75713003e-01,
          1.58414721e-01, 0., 0., 2.36811712e-02, 2.69007962e-02,
          4.05249745e-02, 3.49737965e-02, 5.47631085e-01, 5.87403178e-01,
          5.87403178e-01, 0., 0., 7.76028559e-02, 4.96918827e-01,
          4.96918827e-01, 3.35857901e-03, 3.59190069e-02, 4.96918827e-01,
          4.96918827e-01, 0., 3.14893797e-02, 6.25482528e-03,
          9.26676765e-02, 7.45242760e-02, 4.05025303e-01, 1.20011002e-01,
          6.22269571e-01, 6.22269571e-01, 1.60399601e-01, 0., 0.,
          4.66403291e-02, 5.30061007e-01, 5.30061007e-01, 5.30061007e-01,
          3.82040858e-01, 6.01258203e-02, 8.17309041e-03, 0.,
          2.17624067e-04, 1.01277512e-03, 2.32633995e-03, 1.52102694e-01,
          5.68968654e-01, 5.68968654e-01, 5.68968654e-01, 8.85569141e-04,
          3.62922847e-02, 1.62183288e-02, 5.07825673e-01, 4.66968536e-01,
          2.21697148e-03, 4.01098393e-02, 5.07825673e-01, 5.07825673e-01,
          3.74119775e-03, 3.60063985e-02, 3.52930394e-03, 2.30024412e-01,
          7.88517892e-02, 1.77021883e-02, 6.85907435e-03, 6.73846960e-01,
          6.73846960e-01, 1.55997917e-01, 0., 0., 4.13865335e-02,
          7.03804135e-01, 7.03804135e-01, 1.05567882e-02, 1.25373704e-02,
          1.65626593e-02, 6.16533076e-03, 1.09029720e-02, 0.,
          8.81383121e-02, 6.79316103e-01, 6.79316103e-01, 5.43049760e-02,
          1.73694462e-01, 1.65722206e-01, 4.25172038e-02, 5.73803633e-02,
          6.30851537e-02, 4.75361586e-01, 4.75361586e-01, 2.80332655e-01,
          5.61521761e-02, 4.75361586e-01, 4.75361586e-01, 4.86387834e-02,
          1.22916698e-02, 4.56474908e-02, 4.74621952e-01, 9.76519361e-02,
          0., 1.67150591e-02, 6.14868104e-01, 6.14868104e-01,
          2.04734299e-02, 0., 0., 3.76370400e-02, 7.04113543e-01,
          7.04113543e-01, 1.08914298e-03, 0., 1.12641475e-03,
          6.98838965e-04, 3.26977519e-04, 0., 1.03394054e-01,
          7.00738728e-01, 7.00738728e-01, 7.97254685e-03, 7.24732177e-03,
          1.12696243e-02, 1.34052231e-03, 4.46763093e-04, 1.72033738e-02,
          1.30009845e-01, 6.94240272e-01, 6.94240272e-01, 5.71753159e-02,
          3.98875214e-02, 8.40851143e-02, 1.24367920e-03, 1.45823276e-02,
          1.83920145e-01, 4.37556416e-01, 4.37556416e-01, 4.37556416e-01,
          6.35169744e-02, 4.37556416e-01, 4.37556416e-01, 1.66597180e-02 ]
      - [ 4.28213328e-01, 4.28213328e-01, 4.28213328e-01, 4.28213328e-01,
          6.30584732e-02, 0., 2.78136227e-02, 2.72285134e-01,
          4.28213328e-01, 4.66192305e-01, 4.76446450e-01, 4.76446450e-01,
          4.76446450e-01, 0., 1.94484170e-03, 1.63325351e-02,
          7.86030516e-02, 3.00754786e-01, 5.10543644e-01, 1.97364673e-01,
          4.14629430e-01, 8.07948187e-02, 2.50795707e-02, 1.87566467e-02,
          2.87893653e-01, 4.15126115e-01, 5.10543644e-01, 5.01379132e-01,
          1.93751380e-01, 4.30949301e-01, 1.44060731e-01, 1.03121772e-01,
          0., 5.49634919e-02, 5.73793836e-02, 6.93353832e-01,
          3.98322165e-01, 3.98322165e-01, 3.98322165e-01, 3.98322165e-01,
          2.09266245e-01, 0., 1.62864309e-02, 3.98322165e-01,
          3.98322165e-01, 4.83237177e-01, 3.19948524e-01, 4.11653399e-01,
          5.74553907e-01, 2.42147580e-01, 3.51480528e-04, 2.27260083e-04,
          7.95432180e-02, 3.06339651e-01, 4.43717867e-01, 9.36028063e-02,
          4.73868363e-02, 4.43717867e-01, 4.43717867e-01, 4.43717867e-01,
          1.68641459e-03, 1.14100771e-02, 4.43717867e-01, 3.98620605e-01,
          3.65929045e-02, 2.65931338e-02, 1.10598549e-01, 5.20681858e-01,
          5.20681858e-01, 2.94832699e-02, 8.61694366e-02, 5.20681858e-01,
          2.74674147e-01, 3.66259128e-01, 3.34782988e-01, 2.25471362e-01,
          1.34620905e-01, 4.45004702e-01, 1.04096197e-01, 4.45004702e-01,
          4.45004702e-01, 1.94648325e-01, 4.92326133e-02, 1.80414468e-02,
          3.99035603e-01, 3.99035603e-01, 3.99035603e-01, 3.99035603e-01,
          3.99035603e-01, 3.99035603e-01, 2.59373605e-01, 2.58755356e-01,
          2.72978961e-01, 4.64537114e-01, 4.64537114e-01, 4.64537114e-01,
          3.34821083e-02, 8.15251172e-02, 3.62576932e-01, 4.18120384e-01,
          4.18120384e-01, 3.18406403e-01, 4.18120384e-01, 4.18120384e-01,
          4.18120384e-01, 1.01615330e-02, 2.48056967e-02, 1.39995456e-01,
          5.46094775e-01, 3.62603098e-01, 1.90085247e-01, 2.37338636e-02,
          1.99822918e-01, 5.46094775e-01, 3.90566617e-01, 1.44247234e-01,
          1.29043415e-01, 5.43785691e-01, 5.43785691e-01, 1.80099793e-02,
          4.04719403e-03, 7.10047558e-02, 5.43785691e-01, 2.35591903e-01,
          6.82413951e-02, 2.04739198e-01, 5.46733320e-01, 2.36764476e-01,
          1.11049697e-01, 1.43675327e-01, 9.14267451e-02, 1.63390823e-02,
          1.14159733e-02, 5.46733320e-01, 5.46733320e-01, 2.67286360e-01,
          1.68849751e-01, 2.82259047e-01, 5.12151599e-01, 2.15425357e-01,
          1.72173511e-03, 2.36583147e-02, 4.93653148e-01, 5.12151599e-01 ]
      - [ 1.71617102e-02, 2.38240405e-04, 7.14721275e-04, 0.,
          5.70680380e-01, 5.70680380e-01, 5.70680380e-01, 1.28576443e-01,
          2.11196095e-02, 1.04872147e-02, 7.29478896e-02, 2.70075589e-01,
          2.55979240e-01, 5.21450937e-01, 5.21450937e-01, 5.21450937e-01,
          1.75337255e-01, 6.64719492e-02, 1.41430631e-01, 1.99078664e-01,
          2.20284700e-01, 4.84929085e-01, 5.70869684e-01, 5.59153616e-01,
          9.31976065e-02, 2.30811425e-02, 5.67414351e-02, 4.19482797e-01,
          4.19482797e-01, 2.77059525e-01, 1.37780309e-01, 4.19482797e-01,
          4.19482797e-01, 1.01390004e-01, 9.97758359e-02, 4.19482797e-01,
          4.97962058e-01, 0., 0., 0., 3.35390382e-02, 4.51330729e-02,
          4.97962058e-01, 4.97962058e-01, 4.97962058e-01, 6.30404234e-01,
          9.80720576e-03, 2.88612349e-03, 0., 9.33868997e-03,
          1.63023137e-02, 8.31123143e-02, 4.37631905e-01, 6.30404234e-01,
          4.35854524e-01, 4.35854524e-01, 4.35854524e-01, 2.46671960e-02,
          0., 7.96581991e-03, 2.12434784e-01, 4.35854524e-01,
          4.35854524e-01, 5.36877453e-01, 5.36877453e-01, 2.43091494e-01,
          9.75568220e-03, 5.77354170e-02, 0., 3.30521226e-01,
          4.19023544e-01, 2.66113907e-01, 5.68250299e-01, 0., 0., 0., 0.,
          0., 1.60001174e-01, 5.68250299e-01, 5.68250299e-01,
          5.41066647e-01, 0., 0., 0., 0., 1.97163108e-03, 3.41076910e-01,
          5.41066647e-01, 5.41066647e-01, 6.31913543e-02, 1.73244908e-01,
          5.39336145e-01, 2.57641017e-01, 0., 3.11644777e-04,
          5.34120500e-01, 5.39336145e-01, 1.64852306e-01, 3.22990119e-01,
          2.32648954e-01, 4.70703125e-01, 4.70703125e-01, 5.74331619e-02,
          0., 4.70703125e-01, 4.10475969e-01, 1.94167718e-02,
          1.83357522e-02, 0., 1.47144636e-03, 1.75550189e-02,
          9.29050334e-03, 9.27797630e-02, 6.95418835e-01, 6.95418835e-01,
          1.28461227e-01, 3.43641862e-02, 0., 1.11320009e-03,
          1.32809784e-02, 1.89871397e-02, 4.30960953e-02, 6.91619456e-01,
          6.91619456e-01, 1.81230769e-01, 7.12583933e-05, 1.83425620e-02,
          4.97398943e-01, 1.74614549e-01, 0., 2.77214684e-03,
          5.98235667e-01, 5.98235667e-01, 3.82345496e-03, 2.41467846e-03,
          6.94443136e-02, 4.97518629e-01, 4.97518629e-01, 9.88864526e-03,
          0., 4.97518629e-01, 4.97518629e-01, 2.41467846e-03 ]
      - [ 1.40255066e-02, 3.70044485e-02, 3.27632129e-02, 7.05134422e-02,
          2.38261744e-01, 5.84757984e-01, 5.84757984e-01, 4.83885229e-01,
          1.08407319e-01, 0., 3.36012989e-03, 1.08837709e-02,
          5.03558636e-01, 5.03558636e-01, 3.48917753e-01, 3.30339015e-01,
          5.03558636e-01, 5.70927374e-02, 4.07331577e-03, 2.52293237e-03,
          9.01310612e-03, 4.82989997e-01, 4.82989997e-01, 4.82989997e-01,
          4.82989997e-01, 2.48674721e-01, 1.07328333e-02, 1.49660138e-02,
          8.42896383e-03, 7.22204335e-03, 3.21870595e-02, 4.28621173e-02,
          5.74530780e-01, 5.74530780e-01, 5.74530780e-01, 2.80299746e-02,
          2.06906777e-02, 4.56459597e-02, 1.18998224e-02, 3.14945057e-02,
          2.06077993e-01, 5.69585264e-01, 5.69585264e-01, 5.42328179e-01,
          7.22804591e-02, 1.07084267e-01, 3.56803834e-03, 1.07011315e-03,
          5.54301701e-02, 1.48850739e-01, 3.67834091e-01, 5.23691416e-01,
          5.23691416e-01, 5.23691416e-01, 9.66195539e-02, 0., 0.,
          3.20274532e-01, 2.69635409e-01, 4.50246662e-01, 4.50246662e-01,
          4.50246662e-01, 4.50246662e-01, 2.52241101e-02, 2.69244378e-03,
          7.35685288e-04, 8.49000551e-03, 2.53845286e-02, 1.19230680e-01,
          4.95227158e-01, 6.05445385e-01, 6.05445385e-01, 2.43325174e-01,
          3.86239022e-01, 3.86239022e-01, 4.95489463e-02, 3.86239022e-01,
          3.86239022e-01, 3.86239022e-01, 1.98483825e-01, 3.86239022e-01,
          1.06843196e-01, 2.48626713e-02, 1.51965261e-01, 4.68583643e-01,
          5.05381048e-01, 1.71050355e-01, 7.38014728e-02, 4.41282213e-01,
          5.05381048e-01, 1.46992177e-01, 4.91049374e-04, 5.44668874e-03,
          6.36716187e-02, 2.32489347e-01, 4.93614487e-02, 6.22804835e-02,
          6.73505425e-01, 6.73505425e-01, 2.70336181e-01, 6.94741867e-03,
          0., 0., 4.10057325e-03, 3.75925447e-03, 1.73777509e-02,
          6.78147256e-01, 6.78147256e-01, 3.73969190e-02, 1.09697469e-01,
          5.07384777e-01, 2.48536289e-01, 3.59271526e-01, 5.07384777e-01,
          5.07384777e-01, 1.32806256e-01, 2.64339186e-02, 1.81003264e-03,
          2.32272246e-03, 1.00605890e-01, 5.17549098e-01, 5.17549098e-01,
          5.17549098e-01, 4.23500180e-01, 3.78664583e-02, 1.85391717e-02,
          1.75313875e-02, 1.59652680e-02, 5.23612648e-02, 6.93329513e-01,
          6.93329513e-01, 1.12705477e-01, 2.71386243e-02, 8.98314118e-02,
          8.27931017e-02, 3.17520291e-01, 1.99051023e-01, 3.66044313e-01,
          4.21783179e-01, 4.21783179e-01, 4.05062065e-02, 9.00713131e-02,
          4.21783179e-01, 4.21783179e-01 ]
      - [ 1.99897751e-01, 3.12142298e-02, 3.18786316e-02, 8.79298747e-02,
          4.44803871e-02, 1.98269319e-02, 3.80561948e-02, 6.85440063e-01,
          6.85440063e-01, 2.44036713e-03, 1.98808908e-02, 6.82482645e-02,
          5.61667264e-01, 2.04891041e-01, 2.54644006e-02, 1.71165075e-02,
          5.61667264e-01, 5.61667264e-01, 7.69591937e-03, 1.49209425e-01,
          2.48050421e-01, 7.08549738e-01, 4.87270653e-01, 9.17579979e-03,
          2.46312711e-02, 1.79626808e-01, 3.69652927e-01, 2.17173100e-02,
          1.37302196e-02, 4.17691357e-02, 5.38683355e-01, 5.38683355e-01,
          8.88131931e-02, 3.35221618e-01, 5.38683355e-01, 3.76188681e-02,
          5.42493701e-01, 2.35984504e-01, 1.07181728e-01, 7.73281157e-02,
          6.01593256e-02, 1.58867523e-01, 1.24995202e-01, 5.10686040e-01,
          5.67097425e-01, 8.28382000e-03, 7.36007700e-03, 7.03675626e-03,
          4.12632190e-02, 3.73041481e-02, 2.41251245e-01, 7.11503252e-02,
          6.80688560e-01, 6.80688560e-01, 1.19224027e-01, 9.82234441e-03,
          4.32921993e-03, 5.59131026e-01, 2.05176309e-01, 1.02475658e-02,
          1.50807342e-03, 5.59131026e-01, 5.59131026e-01, 3.56836200e-01,
          2.16921121e-02, 3.78264040e-02, 5.23906231e-01, 5.23906231e-01,
          3.52521650e-02, 6.97184801e-02, 1.89730793e-01, 5.23906231e-01,
          2.40027402e-02, 4.78652231e-02, 3.39789510e-01, 4.99571860e-01,
          4.99571860e-01, 3.19360524e-01, 4.13105786e-01, 3.06655943e-01,
          1.04197055e-01, 1.29428342e-01, 2.47795418e-01, 2.49657348e-01,
          3.27593237e-02, 9.47738290e-02, 4.91608143e-01, 4.13349569e-01,
          4.91608143e-01, 4.36276168e-01, 4.92382526e-01, 4.92382526e-01,
          4.92382526e-01, 4.98600043e-02, 9.05288476e-03, 1.04233082e-02,
          3.07575706e-03, 1.50445729e-01, 4.92382526e-01, 5.90126634e-01,
          3.58000994e-01, 1.96344644e-01, 1.55555636e-01, 3.73729318e-02,
          4.83796112e-02, 2.49183830e-02, 3.19901407e-01, 5.90126634e-01,
          6.52080076e-03, 2.43065327e-01, 6.57062054e-01, 6.57062054e-01,
          2.53842443e-01, 1.00450283e-02, 4.62256931e-02, 5.74072599e-02,
          2.97747608e-02, 1.37762651e-01, 2.93360442e-01, 4.50199008e-01,
          4.76251356e-02, 1.16765782e-01, 1.73070461e-01, 4.49822426e-01,
          5.35846412e-01, 3.89362693e-01, 4.87199426e-02, 4.87297386e-01,
          4.87297386e-01, 4.87297386e-01, 4.87297386e-01, 1.58513620e-01,
          1.17285028e-01, 5.61159700e-02, 2.98840441e-02, 6.36261478e-02,
          1.50572896e-01, 3.76465112e-01, 5.66877663e-01, 5.66877663e-01,
          4.10531193e-01, 5.57209775e-02, 8.22046027e-02, 6.92385584e-02 ]
      - [ 6.28497779e-01, 8.70769918e-02, 1.45530598e-02, 2.31803507e-02,
          2.98785847e-02, 0., 6.13690801e-02, 4.36709881e-01,
          6.28497779e-01, 4.35770839e-01, 4.35770839e-01, 4.35770839e-01,
          4.35770839e-01, 1.69674933e-01, 0., 4.98126186e-02,
          1.66198432e-01, 4.20914978e-01, 5.14790177e-01, 1.17138982e-01,
          3.28869015e-01, 5.14790177e-01, 1.13955535e-01, 9.29460302e-02,
          1.31268874e-01, 1.97735161e-01, 5.14790177e-01, 3.13655615e-01,
          4.66467100e-05, 1.39940137e-04, 1.24591747e-02, 1.34064272e-01,
          1.72935709e-01, 2.15568766e-01, 6.32770658e-01, 6.32770658e-01,
          1.05730318e-01, 2.95989215e-03, 1.13521272e-03, 4.08348907e-03,
          8.71274993e-03, 1.32083129e-02, 5.72371781e-01, 5.72371781e-01,
          5.72371781e-01, 7.65596479e-02, 3.03884670e-02, 3.61907512e-01,
          4.52888966e-01, 1.81745172e-01, 6.51857704e-02, 4.52888966e-01,
          4.52888966e-01, 4.52888966e-01, 1.62706971e-01, 7.16230720e-02,
          4.91319865e-01, 4.91319865e-01, 4.91319865e-01, 4.45148587e-01,
          1.50573805e-01, 9.63756368e-02, 9.58423242e-02, 5.20864725e-02,
          5.56613877e-03, 5.91991516e-03, 4.32888806e-01, 4.87362444e-01,
          4.87362444e-01, 4.87362444e-01, 2.87769616e-01, 9.78918970e-02,
          2.73967296e-01, 3.38089131e-02, 0., 0., 9.49599519e-02,
          4.18236792e-01, 5.71520507e-01, 5.71520507e-01, 2.84395993e-01,
          4.76553977e-01, 2.74813712e-01, 6.21030033e-02, 4.59629372e-02,
          3.12526152e-02, 6.60051107e-02, 4.76553977e-01, 4.76553977e-01,
          4.76553977e-01, 4.47819293e-01, 2.33778387e-01, 9.93993655e-02,
          1.32211521e-01, 3.02252054e-01, 1.41384572e-01, 4.47819293e-01,
          4.47819293e-01, 4.47819293e-01, 1.38761669e-01, 3.85728553e-02,
          2.27963203e-03, 1.69689327e-01, 4.12667602e-01, 3.43854517e-01,
          5.39669156e-01, 5.39669156e-01, 2.72125483e-01, 3.09950769e-01,
          3.52364890e-02, 7.65966857e-03, 2.06501354e-02, 4.67410177e-01,
          4.67410177e-01, 4.67410177e-01, 4.67410177e-01, 1.53772771e-01,
          1.90355033e-01, 1.03911750e-01, 1.76316291e-01, 4.64062423e-01,
          4.88213032e-01, 4.88213032e-01, 3.32615495e-01, 2.16177136e-01,
          2.59961963e-01, 2.29616091e-02, 2.08904501e-02, 3.16343419e-02,
          4.25133631e-02, 4.96049404e-01, 4.96049404e-01, 4.96049404e-01,
          4.96049404e-01, 8.37484002e-02, 3.62634063e-02, 1.97099485e-02,
          6.06078980e-03, 6.00311439e-03, 6.54223204e-01, 6.54223204e-01,
          2.62929618e-01, 2.08159149e-01, 1.52360991e-01 ]
      - [ 5.71775496e-01, 5.71775496e-01, 2.17921212e-01, 2.56804436e-01,
          4.60463375e-01, 1.08561851e-01, 5.17068058e-02, 2.24785712e-02,
          2.60813860e-03, 5.58973968e-01, 5.58973968e-01, 5.86184263e-02,
          2.97779255e-02, 7.08435178e-02, 6.47696778e-02, 5.58973968e-01,
          2.07150683e-01, 2.47841738e-02, 8.03089067e-02, 5.28306186e-01,
          5.28306186e-01, 2.22260058e-01, 1.25551358e-01, 1.55920535e-01,
          5.28306186e-01, 2.44966477e-01, 3.83366942e-02, 3.11536342e-01,
          3.91824126e-01, 3.91824126e-01, 1.39031604e-01, 1.58292189e-01,
          3.91824126e-01, 3.86796653e-01, 3.01542997e-01, 3.91824126e-01,
          5.36003292e-01, 5.36003292e-01, 3.01408857e-01, 1.71674147e-01,
          5.36003292e-01, 1.01992302e-01, 0., 0., 4.50205728e-02,
          4.18578424e-02, 2.75581181e-01, 6.24118149e-02, 3.95880006e-02,
          5.50927222e-01, 5.50927222e-01, 5.50927222e-01, 2.78640445e-02,
          0., 3.62848878e-01, 4.50067669e-01, 4.50067669e-01,
          1.97386846e-01, 1.05698481e-01, 4.50067669e-01, 4.50067669e-01,
          5.88880405e-02, 0., 4.46253836e-01, 4.75448847e-01,
          1.29393995e-01, 1.10545352e-01, 2.69962639e-01, 4.75448847e-01,
          4.75448847e-01, 1.21998020e-01, 3.50350030e-02, 4.44104075e-01,
          1.23870887e-01, 6.14278624e-03, 5.08954339e-02, 6.15082622e-01,
          6.15082622e-01, 1.63837019e-02, 3.24320234e-02, 1.43821329e-01,
          4.78120893e-01, 4.78120893e-01, 2.45203599e-01, 2.00035628e-02,
          4.78120893e-01, 4.78120893e-01, 1.30319566e-01, 5.39623275e-02,
          2.01505776e-02, 1.61182404e-01, 5.15537143e-01, 4.04496253e-01,
          5.45614399e-04, 8.52908790e-02, 5.15537143e-01, 5.15537143e-01,
          2.29998212e-02, 1.07196011e-02, 3.08602452e-01, 2.58079648e-01,
          7.88019150e-02, 0., 2.25814700e-01, 5.80013454e-01,
          5.80013454e-01, 1.79767713e-01, 2.64609039e-01, 5.63720524e-01,
          3.87225211e-01, 3.14657316e-02, 3.48437141e-04, 1.74778268e-01,
          3.96955460e-01, 4.69353572e-02, 1.32482186e-01, 5.63720524e-01,
          4.45110410e-01, 4.45110410e-01, 1.65483162e-01, 4.40306440e-02,
          7.55155385e-02, 2.61887670e-01, 3.40249419e-01, 4.26383764e-01,
          4.45110410e-01, 4.27871466e-01, 4.27871466e-01, 1.85388058e-01,
          3.99486832e-02, 1.25266626e-01, 4.27871466e-01, 4.27871466e-01,
          1.69409096e-01, 4.27871466e-01, 5.33915401e-01, 5.41467816e-02,
          8.49648863e-02, 0., 4.66945581e-02, 2.73475975e-01,
          4.26873475e-01, 3.93948495e-01, 5.33915401e-01 ]
      - [ 5.06981075e-01, 8.45958944e-03, 3.58753535e-03, 4.28777456e-01,
          4.38274354e-01, 6.91107512e-02, 2.59615034e-01, 1.80781215e-01,
          5.06981075e-01, 6.60148561e-01, 2.34320939e-01, 2.97496784e-02,
          4.75413576e-02, 2.30131730e-01, 1.02456875e-01, 1.41166141e-02,
          1.04150558e-02, 6.60148561e-01, 5.14643967e-01, 3.44812930e-01,
          6.67504966e-02, 0., 2.75710821e-01, 5.14643967e-01,
          2.99166236e-02, 4.68679052e-03, 5.14643967e-01, 5.31847179e-01,
          1.66387692e-01, 9.64176953e-02, 4.37482744e-02, 2.75323540e-01,
          5.31847179e-01, 1.71056375e-01, 4.63219881e-02, 5.31847179e-01,
          2.99234182e-01, 3.16026844e-02, 4.40626070e-02, 5.22557259e-01,
          5.22557259e-01, 5.53638488e-02, 7.40565807e-02, 2.73042262e-01,
          5.22557259e-01, 4.83608209e-02, 2.18753633e-03, 0.,
          6.07674003e-01, 6.07674003e-01, 4.43994999e-01, 8.39869455e-02,
          1.00580074e-01, 1.96855173e-01, 1.97139785e-01, 3.18557441e-01,
          1.79192781e-01, 1.86154157e-01, 6.26955807e-01, 6.26955807e-01,
          1.72190908e-02, 8.56472761e-04, 1.37669928e-02, 5.19719720e-01,
          5.19719720e-01, 1.19238771e-01, 2.76591867e-01, 3.01041394e-01,
          5.19719720e-01, 4.46604975e-02, 2.28484143e-02, 2.49078348e-02,
          2.16512993e-01, 1.98854998e-01, 4.08899993e-01, 3.64042148e-02,
          2.46247053e-01, 4.56431538e-01, 3.06555182e-01, 4.11365986e-01,
          4.56431538e-01, 4.04846966e-01, 4.04846966e-01, 3.90512665e-04,
          1.48819089e-01, 3.01746875e-01, 4.04846966e-01, 4.04846966e-01,
          2.51499236e-01, 4.04846966e-01, 5.28129756e-01, 2.56077468e-01,
          2.73590058e-01, 2.93737859e-01, 2.76257187e-01, 1.41073585e-01,
          3.09909112e-04, 3.37571740e-01, 5.28129756e-01, 3.59436125e-01,
          2.36883894e-01, 1.87871903e-01, 4.91784632e-01, 4.91784632e-01,
          2.00243220e-02, 9.85010434e-03, 2.20067754e-01, 4.91784632e-01,
          4.72776651e-01, 4.72776651e-01, 2.67772347e-01, 1.55669063e-01,
          4.52914745e-01, 4.72776651e-01, 1.38286397e-01, 5.93862906e-02,
          3.17512751e-02, 5.43841779e-01, 5.43841779e-01, 1.02110527e-01,
          2.99778860e-02, 5.43841779e-01, 2.94556469e-01, 6.64489269e-02,
          1.85227543e-02, 6.65592626e-02, 3.26079786e-01, 7.14056566e-02,
          4.32158299e-02, 7.20461756e-02, 5.03292501e-01, 5.03292501e-01,
          2.56320924e-01, 2.25561351e-01, 5.03292501e-01, 2.37662911e-01,
          2.19252072e-02, 2.82530766e-02, 6.05788305e-02, 5.07619917e-01,
          5.07619917e-01, 1.38553828e-01, 3.75854641e-01, 5.07619917e-01 ]
      - [ 1.53457731e-01, 4.88669604e-01, 4.88669604e-01, 1.23281516e-01,
          1.23336352e-02, 0., 4.88669604e-01, 4.88669604e-01,
          3.20579745e-02, 4.94219303e-01, 4.94219303e-01, 4.94219303e-01,
          1.77684456e-01, 3.50583717e-02, 0., 1.47836894e-01,
          2.02180788e-01, 4.08377439e-01, 6.81089878e-01, 2.27097645e-01,
          1.03454910e-01, 1.29640643e-02, 4.37470153e-03, 0.,
          1.29953939e-02, 5.29291704e-02, 6.81089878e-01, 4.56687987e-01,
          3.10458988e-03, 5.46291750e-03, 0., 2.24786624e-03, 0.,
          5.11950076e-01, 5.11950076e-01, 5.11950076e-01, 3.36395088e-03,
          2.55058169e-01, 4.82202142e-01, 4.82202142e-01, 1.89858678e-04,
          0., 4.82202142e-01, 4.82202142e-01, 6.49120659e-03,
          3.91242057e-01, 5.14336050e-01, 5.14336050e-01, 5.14336050e-01,
          0., 5.43651776e-03, 6.90191686e-02, 1.51948169e-01,
          1.42431229e-01, 4.12501037e-01, 3.07967514e-01, 1.88547269e-01,
          5.20662591e-03, 0., 1.06291510e-02, 1.33059278e-01,
          5.81291497e-01, 5.81291497e-01, 1.21914275e-01, 2.58827489e-02,
          5.39042018e-02, 1.78931784e-02, 1.31401449e-01, 0.,
          6.65732324e-01, 6.65732324e-01, 2.66326129e-01, 2.06002351e-02,
          3.58678073e-01, 5.36012292e-01, 6.03595711e-02, 1.44446734e-03,
          0., 5.36012292e-01, 5.36012292e-01, 1.84697637e-05,
          1.87043287e-02, 7.02295005e-01, 7.02295005e-01, 7.50684962e-02,
          3.24140536e-03, 8.17891955e-03, 1.31190764e-02, 1.57667529e-02,
          8.35143775e-03, 1.93117950e-02, 2.11751666e-02, 8.64091665e-02,
          1.67749170e-02, 1.11966737e-01, 2.73661494e-01, 5.67696929e-01,
          6.85035169e-01, 3.24980140e-01, 1.72436506e-01, 1.69336349e-02,
          3.44072692e-02, 1.44685258e-03, 4.76067752e-01, 4.76067752e-01,
          4.76067752e-01, 4.76067752e-01, 2.39741579e-01, 2.84446813e-02,
          3.86254817e-01, 5.30573905e-01, 4.62446781e-03, 9.87566449e-03,
          7.39122927e-03, 5.30573905e-01, 5.30573905e-01, 0.,
          2.42759567e-03, 6.94319665e-01, 7.12548554e-01, 1.71689107e-03,
          1.12807797e-02, 5.12642302e-02, 1.64178088e-02, 6.63575111e-03,
          2.07904074e-03, 0., 6.56581996e-03, 4.59715649e-02,
          3.11365329e-05, 5.57828009e-01, 5.57828009e-01, 5.57828009e-01,
          2.42370337e-01, 3.65442829e-03, 2.10849172e-03, 0., 0., 0.,
          6.80740654e-01, 6.80740654e-01, 2.56853253e-01, 2.00562701e-02,
          2.87148077e-03 ]
      - [ 5.11144996e-01, 5.77483356e-01, 4.21138018e-01, 0., 0., 0.,
          9.59660299e-03, 1.29604369e-01, 4.53024030e-01, 1.77668836e-02,
          6.77194297e-02, 8.66639614e-03, 0., 0., 3.04381222e-01,
          6.62492990e-01, 6.62492990e-01, 1.34042457e-01, 4.43019778e-01,
          4.43019778e-01, 7.24151805e-02, 3.07247532e-03, 8.46993085e-03,
          9.44288522e-02, 4.43019778e-01, 4.43019778e-01, 4.43019778e-01,
          5.58719695e-01, 5.58719695e-01, 1.73181310e-01, 3.27086672e-02,
          4.04134579e-02, 4.40889550e-03, 1.94662735e-02, 1.57557651e-01,
          5.58719695e-01, 3.22005212e-01, 6.05034530e-01, 6.05034530e-01,
          0., 0., 0., 1.88618630e-01, 2.34734654e-01, 2.59731680e-01,
          1.31385168e-02, 2.46530935e-01, 2.92319357e-01, 3.83642390e-02,
          0., 2.39758238e-01, 6.27350509e-01, 6.27350509e-01,
          3.52485403e-02, 4.78938550e-01, 4.78938550e-01, 4.78938550e-01,
          1.66050166e-01, 0., 3.44596840e-02, 4.78938550e-01,
          1.90194339e-01, 1.12932749e-01, 6.27550721e-01, 3.96149635e-01,
          1.51386514e-01, 0., 0., 0., 2.81600049e-04, 1.61994472e-01,
          6.27550721e-01, 1.63519904e-01, 5.25630414e-01, 4.18875158e-01,
          0., 0., 0., 5.25630414e-01, 4.88754302e-01, 3.31675224e-02,
          4.56647389e-02, 2.55430162e-01, 2.37224862e-01, 1.58859733e-02,
          0., 5.44580460e-01, 5.44580460e-01, 5.26822329e-01,
          5.12166321e-03, 9.79633257e-02, 6.64930105e-01, 6.64930105e-01,
          9.90551487e-02, 0., 6.13765642e-02, 2.74224550e-01,
          1.02754176e-01, 1.28176454e-02, 3.23479325e-01, 4.49558765e-01,
          4.77938235e-01, 0., 0., 1.19955074e-02, 5.53687550e-02,
          4.77938235e-01, 4.77938235e-01, 1.03218056e-01, 3.22162092e-01,
          1.26373291e-01, 1.03732795e-01, 3.74063909e-01, 5.63373029e-01,
          5.63373029e-01, 2.80101299e-01, 6.49267808e-03, 1.08326953e-02,
          3.56066138e-01, 4.65917081e-01, 7.65431626e-03, 8.47326685e-03,
          4.65917081e-01, 4.65917081e-01, 4.65917081e-01, 7.65763107e-04,
          7.62102474e-03, 6.95179343e-01, 6.95179343e-01, 4.22566431e-03,
          5.83693571e-03, 2.01005246e-02, 1.50634319e-01, 5.74959666e-02,
          1.16092316e-03, 6.63682967e-02, 2.17827246e-01, 5.25684416e-01,
          5.60211353e-02, 2.68901318e-01, 4.97370601e-01, 5.17633438e-01,
          2.45799586e-01, 1.23963453e-01 ]
      - [ 2.40766346e-01, 0., 3.87941138e-04, 5.08537829e-01,
          5.08537829e-01, 5.08537829e-01, 2.47375473e-01, 5.41288257e-02,
          3.11441422e-01, 2.59598315e-01, 1.85084362e-02, 2.51691416e-03,
          2.10893918e-02, 6.55059338e-01, 6.55059338e-01, 1.46103157e-02,
          4.50928835e-03, 2.58526653e-01, 4.37389165e-01, 5.69803268e-02,
          4.14880412e-03, 1.35412940e-03, 6.14443123e-01, 6.14443123e-01,
          6.48517860e-03, 3.97245446e-03, 2.10122317e-01, 3.95638853e-01,
          3.22378933e-01, 3.70184816e-02, 1.60207555e-01, 3.95638853e-01,
          3.95638853e-01, 3.95638853e-01, 3.95638853e-01, 2.87109643e-01,
          1.72302853e-02, 4.58726689e-04, 1.52461685e-03, 5.75171530e-01,
          5.75171530e-01, 5.75171530e-01, 1.11719938e-02, 2.80920067e-03,
          3.68462801e-02, 4.56827372e-01, 4.56827372e-01, 3.63129675e-01,
          1.66811869e-01, 4.56827372e-01, 4.56827372e-01, 7.84015842e-03,
          2.60493747e-04, 3.03511005e-02, 5.90460837e-01, 5.90460837e-01,
          1.06701121e-01, 3.49112213e-01, 3.07988763e-01, 2.40993768e-01,
          4.82632592e-03, 1.02426484e-03, 1.02919325e-01, 4.94055569e-01,
          4.55680013e-01, 1.11914948e-02, 2.65813619e-02, 4.15037200e-02,
          5.93562750e-03, 4.94055569e-01, 4.94055569e-01, 2.29257077e-01,
          4.71428871e-01, 2.05411464e-01, 4.71428871e-01, 4.71428871e-01,
          1.81109741e-01, 2.72672605e-02, 7.22328061e-03, 1.74700171e-01,
          4.71428871e-01, 2.81985492e-01, 1.47119716e-01, 3.57113123e-01,
          4.92949963e-01, 1.92565620e-01, 1.01970946e-02, 8.61916039e-03,
          4.93014544e-01, 4.93014544e-01, 3.10664147e-01, 1.26340896e-01,
          1.27446562e-01, 5.92683375e-01, 5.92683375e-01, 1.56548049e-03,
          2.37745279e-03, 8.73149186e-02, 3.93936485e-01, 4.01548445e-02,
          5.08262729e-03, 8.03445373e-03, 5.17709136e-01, 5.17709136e-01,
          6.91777319e-02, 5.17709136e-01, 4.28928941e-01, 1.71134677e-02,
          8.39587003e-02, 4.63944934e-02, 5.96577525e-01, 7.62854815e-01,
          4.02902104e-02, 4.16364986e-03, 6.00007223e-03, 3.27815041e-02,
          2.06352115e-01, 1.06730185e-01, 9.08743739e-02, 4.56506222e-01,
          5.20154655e-01, 1.62380524e-02, 1.46964518e-02, 1.53144253e-02,
          4.74259287e-01, 5.20154655e-01, 1.59172684e-01, 2.53542466e-03,
          5.31594129e-03, 1.72090352e-01, 1.30514160e-01, 3.79395817e-04,
          3.43986810e-03, 6.78672731e-01, 6.78672731e-01, 1.97414905e-01,
          8.57877284e-02, 1.31072178e-01, 4.36752081e-01, 4.06481355e-01,
          6.23568594e-02, 4.36752081e-01, 4.36752081e-01, 4.36752081e-01 ]
      - [ 7.93822706e-01, 3.94490182e-01, 1.43372100e-02, 0.,
          2.57541407e-02, 4.17413414e-02, 1.93320885e-02, 2.33274717e-02,
          4.50301617e-01, 7.03661501e-01, 6.21800218e-03, 0., 0., 0.,
          3.55018931e-03, 1.07500190e-02, 5.02996333e-02, 7.03661501e-01,
          7.04380453e-01, 2.02868711e-02, 5.73454751e-03, 1.29141368e-03,
          0., 0., 1.05095766e-02, 1.04209501e-02, 7.04380453e-01,
          7.03421175e-01, 5.43758050e-02, 5.95887890e-03, 1.71339903e-02,
          9.34774335e-03, 1.20553782e-03, 8.92177282e-04, 2.97392427e-04,
          7.03421175e-01, 4.86494541e-01, 4.86494541e-01, 4.86494541e-01,
          4.86494541e-01, 1.98152483e-01, 5.30951843e-03, 0., 0.,
          9.56072137e-02, 5.44635832e-01, 3.04079484e-02, 3.77415940e-02,
          1.53574109e-01, 5.44635832e-01, 2.80610919e-01, 0., 0.,
          5.44635832e-01, 5.19117296e-01, 1.34830832e-01, 8.03761259e-02,
          3.83149087e-01, 5.19117296e-01, 1.22165352e-01, 0., 0.,
          5.19117296e-01, 5.59544981e-01, 1.90015599e-01, 8.93698335e-02,
          5.59544981e-01, 5.59544981e-01, 3.64171714e-02, 0., 0.,
          9.85984653e-02, 0., 1.97669826e-02, 6.70552075e-01,
          6.70552075e-01, 3.05992991e-01, 1.77236844e-03, 0., 0., 0., 0.,
          1.52211252e-03, 4.38039660e-01, 6.24707937e-01, 6.24707937e-01,
          1.46155924e-01, 0., 0., 0., 0., 0., 2.08173576e-03,
          6.99625254e-01, 6.99625254e-01, 1.18577816e-01, 0., 0., 0., 0.,
          0., 0., 6.92736566e-01, 6.92736566e-01, 1.82528317e-01, 0., 0.,
          0., 5.05414698e-03, 2.58012950e-01, 7.42426872e-01,
          6.12165272e-01, 6.35657599e-03, 0., 0., 0., 2.98894080e-03, 0.,
          1.49697140e-01, 6.09849870e-01, 6.09849870e-01, 4.77080792e-01,
          5.70391444e-03, 5.12375683e-03, 1.70791871e-03, 0., 0.,
          1.97376794e-04, 1.84127726e-02, 6.97927415e-01, 6.97927415e-01,
          1.30983412e-01, 3.46227549e-02, 1.15409195e-02, 0., 0., 0., 0.,
          2.72726715e-01, 6.40181839e-01, 6.40181839e-01, 2.99344003e-01,
          9.97813344e-02, 0. ]
      - [ 4.34311301e-01, 1.12038918e-01, 4.34311301e-01, 4.34311301e-01,
          9.14941207e-02, 6.04548454e-02, 1.67186663e-01, 4.34311301e-01,
          4.34311301e-01, 4.13711786e-01, 1.45331889e-01, 3.28404099e-01,
          2.63678014e-01, 6.63515087e-03, 4.13711786e-01, 4.13711786e-01,
          3.35703403e-01, 4.13711786e-01, 4.02530760e-01, 4.02530760e-01,
          4.02530760e-01, 1.71806872e-01, 3.16001661e-02, 2.91138351e-01,
          4.02530760e-01, 4.02530760e-01, 2.65604734e-01, 3.75522077e-01,
          3.75522077e-01, 3.75522077e-01, 3.75522077e-01, 7.98593834e-02,
          5.24695776e-02, 3.75522077e-01, 3.75522077e-01, 3.75522077e-01,
          4.21643723e-03, 5.27916625e-02, 4.79562521e-01, 4.79562521e-01,
          1.13750614e-01, 1.83841996e-02, 3.92028511e-01, 4.79562521e-01,
          3.68104994e-01, 1.19365811e-01, 3.99677306e-01, 3.99677306e-01,
          3.99677306e-01, 3.99677306e-01, 3.99677306e-01, 3.99677306e-01,
          1.51799083e-01, 1.62586290e-02, 3.00508350e-01, 4.71433848e-01,
          4.71433848e-01, 1.14001392e-03, 7.71971643e-02, 1.49449423e-01,
          4.71433848e-01, 4.41816807e-01, 1.21402048e-01, 3.57346863e-01,
          3.25014293e-01, 2.89973885e-01, 2.01320633e-01, 3.57346863e-01,
          3.57346863e-01, 3.57346863e-01, 3.57346863e-01, 3.57346863e-01,
          2.12738048e-02, 1.56674236e-02, 2.20027566e-02, 2.61726286e-02,
          3.51203084e-02, 2.28953600e-01, 6.22262955e-01, 6.22262955e-01,
          4.04777050e-01, 8.28469545e-02, 4.43625748e-01, 4.43625748e-01,
          4.16172683e-01, 1.42795503e-01, 6.75935671e-02, 4.43625748e-01,
          4.43625748e-01, 5.77124283e-02, 1.01346374e-01, 4.57831353e-01,
          4.57831353e-01, 3.58469278e-01, 5.17154336e-02, 1.15026087e-01,
          4.57831353e-01, 4.57831353e-01, 4.80847880e-02, 3.77086878e-01,
          4.15465981e-01, 4.15465981e-01, 9.80895013e-02, 1.46502033e-01,
          1.05274066e-01, 4.15465981e-01, 4.15465981e-01, 3.47908407e-01,
          8.71300325e-02, 1.52277157e-01, 2.37284675e-01, 5.08054160e-02,
          1.97459191e-01, 6.32886350e-01, 6.32886350e-01, 2.42090285e-01,
          7.29937553e-02, 3.76022398e-01, 3.47309291e-01, 3.76022398e-01,
          3.76022398e-01, 1.23066558e-02, 1.64654478e-01, 3.76022398e-01,
          3.76022398e-01, 3.76022398e-01, 7.43768588e-02, 1.23904869e-01,
          5.36601365e-01, 5.36601365e-01, 2.68039554e-02, 5.88841066e-02,
          5.36601365e-01, 3.07097226e-01, 1.06954612e-01, 3.08198899e-01,
          3.97085369e-01, 3.97085369e-01, 4.78406996e-02, 1.50896117e-01,
          3.97085369e-01, 3.97085369e-01, 3.97085369e-01, 2.95980155e-01 ]
      - [ 0., 1.65686142e-02, 6.85532093e-01, 6.85532093e-01,
          2.30159491e-01, 0., 0., 0., 0., 0., 1.07422459e-03,
          1.09248400e-01, 7.00382769e-01, 7.00382769e-01, 0.,
          3.12109827e-04, 1.04036611e-04, 0., 6.48343004e-04,
          4.44543175e-03, 1.45688057e-02, 7.04533517e-01, 7.04533517e-01,
          0., 4.00115023e-05, 1.33371668e-05, 0., 1.52516356e-02,
          3.05850245e-02, 1.30845293e-01, 6.98099077e-01, 6.98099077e-01,
          0., 0., 0., 7.61767197e-03, 5.52755781e-03, 4.93401647e-01,
          6.12412691e-01, 6.12412691e-01, 1.76073890e-02, 0., 0., 0.,
          9.54526418e-04, 0., 8.83901566e-02, 6.40428960e-01,
          6.40428960e-01, 4.06810433e-01, 0., 0., 0., 0., 0., 0.,
          1.23316236e-02, 7.04561830e-01, 7.04561830e-01, 0., 0., 0., 0.,
          0., 3.32816504e-04, 4.64806659e-03, 7.04607904e-01,
          7.04607904e-01, 0., 0., 0., 0., 3.60206097e-01, 6.56985760e-01,
          6.56985760e-01, 1.78018864e-02, 1.64456107e-03, 0., 0., 0.,
          1.05916411e-02, 1.23912193e-01, 5.59606850e-01, 5.59606850e-01,
          5.59606850e-01, 1.87358469e-01, 0., 0., 1.06115807e-02,
          6.60474226e-02, 9.10366792e-03, 1.91516876e-02, 1.59418747e-01,
          6.95391357e-01, 6.95391357e-01, 0., 0., 2.65907380e-03,
          6.98708836e-03, 0., 9.54926014e-04, 9.06752869e-02,
          7.01702297e-01, 7.01702297e-01, 0., 0., 0., 0., 6.80371761e-01,
          6.80371761e-01, 6.89965859e-02, 0., 0., 0., 2.73884367e-03,
          4.69633564e-02, 2.45810464e-01, 5.67815185e-01, 4.81407136e-01,
          7.05053881e-02, 8.90493467e-02, 3.67146172e-02, 0.,
          2.65485365e-02, 3.20617288e-01, 5.67815185e-01, 4.64577258e-01,
          2.49638855e-01, 4.74965870e-01, 4.74965870e-01, 1.58135623e-01,
          0., 3.61821577e-02, 1.18367031e-01, 4.74965870e-01,
          1.11322934e-02, 4.37241234e-02, 6.43764675e-01, 6.43764675e-01,
          4.03062850e-01, 0., 9.70720220e-03, 6.01201691e-03,
          9.00703389e-03 ]
      - [ 6.88064516e-01, 2.14797437e-01, 1.07158478e-02, 0.,
          2.10146827e-04, 0., 1.02254003e-03, 3.44873033e-03,
          6.88064516e-01, 6.43519759e-01, 6.07705951e-01, 7.53438391e-04,
          0., 0., 0., 1.05652714e-03, 1.57625489e-02, 4.58149463e-01,
          6.31850779e-01, 4.20507282e-01, 5.27417008e-03, 0., 0., 0.,
          1.09424330e-02, 1.35080278e-01, 6.31850779e-01, 5.33479691e-01,
          3.05684388e-01, 1.54208079e-01, 0., 4.87703597e-03, 0.,
          1.53700367e-01, 5.33479691e-01, 5.33479691e-01, 7.01255202e-01,
          9.35759917e-02, 2.93653435e-03, 0., 0., 0., 1.50362984e-03,
          2.67346315e-02, 7.01255202e-01, 6.05091333e-01, 1.88005358e-01,
          0., 0., 0., 0., 2.17263643e-02, 4.75256979e-01, 6.05091333e-01,
          1.10559218e-01, 2.83990265e-03, 0., 0., 0., 0., 5.31214952e-01,
          6.16311371e-01, 5.65319359e-01, 4.38500522e-03, 0., 0., 0.,
          6.92191906e-03, 0., 7.04445064e-01, 7.04445064e-01,
          2.03756653e-02, 5.78104019e-01, 5.78104019e-01, 1.23790592e-01,
          3.46907042e-02, 0., 0., 5.92728890e-03, 7.10139200e-02,
          5.51555157e-01, 5.66532552e-01, 9.48910713e-02, 2.84816623e-02,
          0., 0., 0., 1.47138402e-01, 5.66532552e-01, 5.66532552e-01,
          1.38144828e-02, 0., 0., 0., 0., 4.76022251e-04, 6.92419529e-01,
          6.92419529e-01, 1.84410125e-01, 2.22672359e-04, 0., 0., 0.,
          3.00823152e-02, 2.38992069e-02, 7.04093456e-01, 7.04093456e-01,
          2.22672359e-04, 3.60034071e-02, 2.75245160e-02, 8.29236233e-04,
          7.03815401e-01, 7.03815401e-01, 2.34493474e-03, 2.44752475e-04,
          3.95148154e-03, 1.36509016e-02, 1.62351504e-02, 2.96276752e-02,
          8.21454898e-02, 6.96323812e-01, 6.96323812e-01, 4.09406908e-02,
          2.18268260e-02, 6.05820343e-02, 9.79951620e-02, 6.01819716e-04,
          1.52677074e-01, 4.58031178e-01, 1.37595683e-01, 5.81856668e-01,
          1.47203133e-01, 5.46411097e-01, 2.87657320e-01, 2.48288363e-02,
          0., 9.95687246e-02, 2.98706204e-01, 0., 5.80346704e-01,
          3.87871712e-01, 5.80346704e-01, 2.66489476e-01, 0. ]
      - [ 0., 1.18509354e-02, 2.99680322e-01, 8.11933458e-01,
          4.92630333e-01, 0., 4.99966182e-03, 1.66655378e-03, 0., 0.,
          1.02296315e-01, 5.79958379e-01, 5.79958379e-01, 3.75042528e-01,
          4.07929957e-01, 6.30649701e-02, 0., 0., 0., 1.17498646e-02,
          9.10735354e-02, 1.10610813e-01, 1.17163725e-01, 6.92330658e-01,
          6.92330658e-01, 7.12569151e-03, 0., 3.52206469e-01,
          5.19382715e-01, 7.72585571e-02, 5.11951046e-03, 4.73605283e-03,
          5.19382715e-01, 5.19382715e-01, 1.33334890e-01, 1.94146201e-01,
          1.20688796e-01, 6.80469126e-02, 5.90937734e-01, 6.41968071e-01,
          2.92041630e-01, 0., 1.36850160e-02, 8.77486616e-02,
          3.46249431e-01, 3.35949683e-03, 1.16462950e-02, 1.55412465e-01,
          5.83731055e-01, 5.83731055e-01, 5.35746872e-01, 3.69051807e-02,
          8.19067005e-04, 4.58888768e-04, 3.59629211e-03, 1.08914562e-01,
          2.32936367e-01, 2.55860984e-01, 5.50184846e-01, 5.50184846e-01,
          5.07444203e-01, 1.34788832e-04, 0., 3.19598526e-01,
          6.64638698e-01, 6.64638698e-01, 3.30311768e-02, 5.20414580e-03,
          5.57382107e-02, 2.35939138e-02, 1.67155988e-03, 5.42934872e-02,
          9.30593312e-02, 2.96797995e-02, 5.09554893e-02, 2.31559686e-02,
          1.79824047e-02, 1.78939267e-03, 5.71923256e-01, 5.71923256e-01,
          5.71923256e-01, 1.42893031e-01, 4.30526733e-01, 3.94219697e-01,
          3.61705720e-01, 4.43907261e-01, 4.97014709e-02, 2.84006864e-01,
          4.36494708e-01, 1.81224927e-01, 1.49418339e-01, 4.14055854e-01,
          6.00448549e-01, 4.36038792e-01, 4.74678606e-01, 1.05317317e-01,
          6.37338907e-02, 2.60765404e-02, 9.17312726e-02, 1.95046328e-02,
          5.63898683e-01, 5.63898683e-01, 5.63898683e-01, 2.00104833e-01,
          0., 0., 0., 1.23697112e-03, 2.03929003e-02, 3.10948417e-02,
          1.62485056e-02, 0., 2.85330452e-02, 5.63159823e-01,
          5.63159823e-01, 5.63159823e-01, 2.01168016e-01, 4.99352664e-01,
          4.99352664e-01, 3.64078820e-01, 0., 1.50654204e-02,
          3.02661397e-02, 3.45083684e-01, 1.62067547e-01, 4.66113448e-01,
          6.11978412e-01, 2.30266511e-01, 1.43917695e-01, 1.99434422e-02,
          2.81403307e-02, 0., 1.38633788e-01, 3.88214588e-01,
          6.11978412e-01, 2.64509413e-02, 9.73418057e-02, 3.91779780e-01,
          4.86226410e-01, 4.86226410e-01, 0., 1.81196749e-01,
          2.98992395e-01, 4.86226410e-01 ]
      - [ 2.69757770e-02, 2.49776654e-02, 3.32385629e-01, 6.92490816e-01,
          4.93134618e-01, 1.35684358e-02, 2.72832781e-01, 2.88410276e-01,
          2.69757770e-02, 0., 4.59700264e-03, 2.54238434e-02,
          5.75495183e-01, 5.75495183e-01, 5.75495183e-01, 1.27439294e-03,
          0., 0., 2.96511352e-01, 1.28859639e-01, 1.33766634e-02,
          2.03354247e-02, 6.66414797e-01, 6.66414797e-01, 3.56313912e-03,
          8.44333088e-04, 0., 5.63861668e-01, 1.26331046e-01,
          2.80585396e-03, 1.45269267e-03, 5.63861668e-01, 5.63861668e-01,
          5.15189581e-02, 2.14314871e-02, 1.46514431e-01, 6.09689713e-01,
          1.69405937e-01, 2.75528841e-02, 1.66031927e-01, 2.15555921e-01,
          7.76458606e-02, 2.92988300e-01, 2.34754980e-01, 6.09689713e-01,
          4.69011039e-01, 7.86243528e-02, 1.76053703e-01, 1.76289037e-01,
          4.69011039e-01, 2.15116024e-01, 3.00093647e-02, 4.69011039e-01,
          4.69011039e-01, 4.90948677e-01, 4.90948677e-01, 4.90948677e-01,
          4.87987608e-01, 1.42525882e-01, 5.33048026e-02, 2.70755892e-03,
          8.71463865e-02, 5.58202341e-02, 7.79150367e-01, 3.98560375e-01,
          3.05809051e-01, 3.18031430e-01, 2.21911110e-02, 2.95472710e-04,
          9.65421437e-04, 6.68158929e-04, 1.76467896e-01, 7.77420580e-01,
          3.11084330e-01, 4.67459187e-02, 1.90362558e-01, 9.58855152e-02,
          6.36953209e-03, 0., 1.21289812e-01, 4.78242397e-01,
          3.17899764e-01, 2.42788792e-02, 3.70540544e-02, 1.78891104e-02,
          6.68235822e-03, 1.47586898e-03, 2.42209970e-03, 6.67062581e-01,
          6.67062581e-01, 3.03454790e-02, 9.13657546e-02, 4.95798796e-01,
          4.95798796e-01, 5.01338467e-02, 6.73880684e-04, 1.70037383e-04,
          4.95798796e-01, 4.95798796e-01, 1.00458629e-01, 3.55612636e-02,
          6.26876593e-01, 7.55413413e-01, 1.10330455e-01, 3.36973649e-03,
          0., 6.17082417e-02, 3.85719836e-02, 6.04968667e-02,
          4.12020646e-02, 7.52782822e-02, 7.00612247e-01, 7.00612247e-01,
          6.58787601e-03, 1.15859287e-03, 1.89528102e-03, 1.47841414e-02,
          5.48917847e-03, 7.19865188e-02, 2.50933707e-01, 4.89193290e-01,
          4.89193290e-01, 3.89556810e-02, 3.83519679e-02, 4.89193290e-01,
          4.53889221e-01, 0., 1.20059932e-02, 5.97338006e-02,
          1.68050513e-01, 6.57879934e-02, 2.76884176e-02, 5.78808151e-02,
          6.90185487e-01, 6.90185487e-01, 2.52794456e-02, 3.74227352e-02,
          4.92105156e-01, 4.92105156e-01, 1.13964833e-01, 1.37365246e-02,
          1.05824493e-01, 4.92105156e-01, 4.92105156e-01 ]
      - [ 3.68854590e-02, 1.40953392e-01, 4.73103136e-01, 2.12396890e-01,
          4.35333187e-03, 1.83326006e-01, 4.73103136e-01, 4.73103136e-01,
          4.73103136e-01, 3.03823184e-02, 1.47858128e-01, 4.87691075e-01,
          4.87691075e-01, 0., 4.15479317e-02, 1.38734415e-01,
          4.87691075e-01, 4.87691075e-01, 9.51392353e-02, 2.18873937e-02,
          2.08115056e-01, 3.60516250e-01, 1.73016579e-03, 3.78984399e-03,
          2.35227391e-01, 6.14694595e-01, 6.14694595e-01, 2.57832140e-01,
          1.97783962e-01, 2.04297900e-01, 1.93916764e-02, 9.60285291e-02,
          2.61813421e-02, 5.28238595e-01, 5.28238595e-01, 5.28238595e-01,
          4.07881662e-02, 1.33278310e-01, 4.28481072e-01, 4.17233914e-01,
          1.10793576e-01, 2.35689461e-01, 4.28481072e-01, 4.28481072e-01,
          4.28481072e-01, 6.06636377e-03, 1.25050340e-02, 4.83163029e-01,
          4.83163029e-01, 5.26801310e-02, 1.68449968e-01, 4.27244306e-01,
          4.83163029e-01, 2.84522951e-01, 7.63655058e-04, 1.06253028e-01,
          5.04262507e-01, 5.04262507e-01, 5.91241661e-03, 1.93619039e-02,
          1.28688306e-01, 5.04262507e-01, 4.51509625e-01, 9.61133763e-02,
          3.58368196e-02, 1.65906593e-01, 4.04577516e-02, 1.76664162e-02,
          1.10392412e-02, 2.58441150e-01, 6.65749252e-01, 6.65749252e-01,
          1.74347758e-01, 4.97568734e-02, 2.18317211e-01, 3.82986695e-01,
          1.43830061e-01, 2.46773064e-01, 3.29715967e-01, 5.37180007e-01,
          5.37180007e-01, 4.66065019e-01, 4.48530704e-01, 3.17480534e-01,
          1.38498738e-01, 2.35663075e-02, 4.78108935e-02, 1.40350401e-01,
          4.66065019e-01, 4.66065019e-01, 1.27165496e-01, 2.55883276e-01,
          4.96251106e-01, 4.96251106e-01, 9.40285847e-02, 3.29027586e-02,
          7.20473975e-02, 4.96251106e-01, 3.99357080e-01, 2.95990091e-02,
